14 128
3 -0.001573141 0.0024805556 -0.003144805 -0.00012599926 0.00399911 -0.0042466633 -0.0018614838 -0.0034653808 -5.5958622e-05 0.0033893525 -0.0017075691 -0.0015146502 0.0035582194 0.002535976 -0.0029351686 0.000340625 0.0016631129 0.0024688195 -0.004156233 -0.0020038136 0.00060899183 0.00019444448 0.0021217398 0.000728928 -0.003460969 0.0031619924 -0.0033763302 0.001255245 0.0013192504 0.0023326464 -0.00027131298 0.0005673838 0.0012889308 -0.0015538896 -0.004514345 0.000396307 0.002692307 0.0004728106 0.002544655 -0.0021472317 0.002399218 -0.0006504862 0.0022582721 0.002628674 0.00060657103 0.0012893706 -0.000106015694 7.3029005e-05 0.00032944483 -0.0021730328 0.0010461854 -0.003939169 -0.00026204446 0.00046452918 0.001480193 -0.002345962 0.001945759 -0.0008862744 0.0014727272 -0.000244016 -0.0002527948 -0.002853706 -0.000851091 0.0041443342 -0.0022606892 -0.0042415485 0.004122584 0.0017444865 0.001665009 0.0038472523 -0.003873557 -0.0011156143 0.0039572064 -0.0022394585 0.002562553 -0.00031268888 -0.0025641932 -0.0026867168 -0.002393527 -0.00013138397 0.0013990309 0.0006151594 0.001845962 -0.0021649196 0.00016782086 0.00030004483 0.0031934336 0.0039215446 -0.0026695998 -0.0025685215 -0.004375764 -0.0033446075 0.0019254193 -0.00011042986 0.0028790515 -0.0001228941 -0.002421293 0.0031206447 0.00097354647 0.0027890364 0.002755251 -0.001130654 -0.00092765637 -0.0011406883 -0.0023232605 -0.0007196465 -0.00217717 -0.0015052065 -0.0023238696 -0.0027430782 0.0019016323 -0.0038570487 -0.0004182746 -0.0030965263 -0.0026095614 0.0013899419 -0.0021317264 -0.0019655018 -0.0029399947 0.00038244054 -0.0029614803 -0.0015572801 0.0016979829 -0.0036967339 -0.002771654 -0.00039307165 -0.00020098496 0.00074268813
, -0.0027094095 0.0039900322 0.0028912933 0.00051371893 -0.0013899136 -0.0043554967 -0.0021378093 -0.0015378917 -0.001428765 0.0010905268 -0.0009429152 -0.002224503 0.0016415663 0.0008505253 -0.00302168 0.00022255201 0.0026974403 -0.0038847893 0.0018510332 0.0039591407 0.0005030597 0.003869472 0.00053789245 -0.00012614568 0.00021714339 -0.002013339 0.003933628 0.0012913703 -0.0010593183 1.873666e-05 -0.0004909897 -0.0033362336 0.0030490728 0.00135863 4.8415182e-05 0.0024230597 -0.0033909206 -0.00013624501 -0.003944672 0.0027058157 -4.3284283e-05 -0.00086687796 0.0005701416 0.0017453135 0.00060071464 -0.0040998408 0.0007850291 0.0020565568 0.0023965905 -0.0035015275 -0.0032146908 -0.0033655039 -0.0031866042 -0.0014471032 0.0026559646 0.004293 0.0022987039 0.000317031 -0.0038194228 -0.0022090117 -0.0035959873 -0.0014247881 0.0011627201 0.004183707 -8.900006e-05 -0.0025101304 0.002225559 0.001329758 -0.0012670769 0.0014706512 -0.0022677488 0.002084589 -0.002005463 0.0026374534 -0.00050184975 -0.000109862805 0.00038655312 0.0016128513 -0.0014202069 -0.0032066414 -0.0025104939 0.0003109815 0.00024824555 -0.0023805904 0.001002439 -0.0018775754 -0.0032135642 -0.0031198005 0.00050362124 0.00018179783 -0.00027413672 -0.004478345 0.003646405 -0.00014794295 -2.3223307e-05 0.004413089 -0.0040006526 0.0017526111 0.0036081923 -0.0018606795 -0.0020269076 -0.00021812209 -0.0032745323 -0.0020760244 -0.0028701706 -0.00083179766 -0.00034361682 -0.0026449594 0.0038821981 0.003176025 0.0037347432 -0.0031865684 0.0018334584 -0.0007688738 0.0015606027 0.0040742033 -0.0002324323 -0.0010662844 -0.00031725602 0.004047942 5.5675715e-05 -0.0009856459 9.678431e-05 0.0033470346 -0.0020701308 -0.0009757496 0.0007685691 0.003172289
  -0.0016903401 0.0004981582 -0.0034042043 -0.00069815735 0.00023091401 -0.004779725 -0.0024330153 0.0014234222 -0.0009919342 0.0021159297 0.0023738644 -0.0030110844 -0.0041513573 -0.0011718633 -0.003564165 0.002800209 0.00310504 -0.0025178771 -0.00452071 -0.0028291377 0.004071857 0.0020566373 0.0012486877 -0.002921087 -0.0035927685 -0.0036218679 -0.00047944256 0.001267078 0.0016784595 0.0037326766 0.0009245755 0.0034663102 0.004510023 0.0029631553 -0.003362951 0.0024725052 0.0040460653 0.0015644579 0.0024233232 0.0016348655 -0.00344717 -0.0040834034 0.0001431011 0.0034690762 0.0020104346 -0.0032448403 -0.00039373967 0.0024588897 0.004452133 -0.0004630331 -0.0020913286 -0.0015938808 -0.0023151732 -0.0013944539 0.0033974778 0.0024190831 0.00030869743 0.0010867728 -0.0031457166 -0.00286577 -0.0016078923 0.0031085173 0.0045457543 0.0035308045 0.00044632982 -0.00473954 -0.0018422888 4.1697833e-05 -0.0027515772 0.0035136056 -0.0029823028 -0.0019251292 -0.0004029407 -0.0018671962 0.0028082498 -0.0036030298 -0.0024952525 0.0029262921 0.0029386969 0.003545418 0.00051472674 0.0011508522 0.0019654266 -0.0040769633 0.0029199566 -0.0011137514 0.0017092564 0.0025925438 0.003259593 0.0022799477 -0.0023885202 0.0029286016 0.0006050118 0.003764895 0.0047913296 0.0034064364 -0.0040364247 0.0035980614 0.0023282222 0.0040492928 -0.0036426513 0.0010523043 0.0023227918 0.0019361633 -0.00053549936 -0.0016208427 -0.0030112052 -0.00012831303 0.0038437492 0.004237386 0.00504004 -0.00040102354 0.0044583892 -0.0035111671 -0.0019073613 -0.00093449716 -0.0012287385 0.0014648046 -0.0016831255 0.0025747041 -0.0017833085 0.0027862652 0.0034938136 -0.0015209108 -0.0034122623 -0.0021718063 -0.0007043561 -0.003003233
[ 0.0021011883 0.0009077798 0.0013614404 -0.00055061036 0.0028744356 -0.0036829924 -0.0033236328 0.0015969606 -0.0036083702 0.004347237 -0.0013409413 0.0026388443 -0.0030179836 -0.001669577 -0.0025354351 -0.0036542178 0.0031502773 -0.0045130104 -0.0026844037 0.0015631671 -0.0012204718 -0.001344081 -0.0035974386 0.0005048542 0.000115550676 -0.0004115634 -0.0009619813 0.0025187721 -0.0019110845 0.00086168747 -0.0039041883 0.0026938517 0.00018426683 -0.001892771 -0.004459118 -0.0034430572 0.0012322702 -0.003619737 -0.0033437475 0.0023328438 -0.004235872 -0.0017168071 0.0022909343 -0.0008710724 -0.00012343426 -0.0046473327 0.0022561718 0.00061642815 -0.0017972663 -0.0015804514 0.0036384237 -0.0040982226 -0.002707547 -0.0029637904 0.0026880808 -0.00029910993 0.0012089058 0.0037929572 0.0021972747 -0.001055064 -0.00027848914 0.0011568341 0.003751962 0.0029461025 -0.00013371557 -0.002197044 0.0032798995 -0.0019232824 -0.0039105196 0.0008247563 -0.002154399 0.0019622564 0.0028212368 -0.003778528 0.003891515 0.0010761176 0.000919255 -0.002749033 0.0015789066 -0.0014271382 -0.00030537797 0.00054254057 -0.0031970383 -0.00093539275 0.0034380734 0.0015149767 0.0006836705 -0.002886041 0.004200858 -0.00036432964 -0.00051471975 0.0014921626 0.00060022605 -0.00013074002 0.00077710324 0.0032392757 0.00023952828 0.0021017916 -0.0013624658 0.0024189074 0.0029129938 0.002644068 -0.0008754594 0.0013467438 0.0040271687 -0.0001347078 0.00358267 0.002398699 -0.002876621 0.0027983347 0.002638427 -0.0045058066 -0.0035681175 -0.0017785596 -0.0036499584 -0.0031198391 0.00034240555 0.004064388 -0.0026538644 0.002632794 -0.0035673562 0.0025386796 -0.0033290053 0.0037819338 -0.002060134 0.00035231994 -0.002477965 0.0023363058
] -0.0023082525 0.00091784156 -0.002134155 -0.0037559837 -0.0019146152 -0.0015772647 0.0029123912 -1.3240522e-05 -0.0034507727 -0.00021788475 0.0010027562 0.0015763544 0.0026890133 0.0024643894 -0.003904201 0.0030581795 0.0026234204 -0.0007965368 0.0006911193 0.0037185522 0.0037270228 -2.1012223e-05 -0.0006716905 -0.0003097263 -0.0013339596 -7.944742e-05 -0.0012470233 0.002077482 -0.0031055436 0.0033297741 0.0030664338 0.0017045041 -0.0023067144 -0.0011832216 -0.0011371259 0.0031759683 -0.0012982012 -0.0029143684 0.0004890744 -0.000980164 -1.26158575e-05 -0.0014809319 -0.003860291 -0.0026576295 -0.0009796282 -0.0024638195 -0.003313781 0.0020466242 -0.0032220166 -0.0021921622 -0.0039260387 0.0004621718 -0.0031622557 0.0019456609 0.0030744511 0.0016984508 0.0039748508 -0.0019657977 0.0002537826 -0.0035989715 -0.004027551 -0.0034895923 0.0024660083 0.0044314405 -0.00010620094 -0.0043643727 -0.0014802852 0.002503605 -0.0032280146 0.0018817066 -0.0037142853 0.0035283356 0.0013179268 -0.0031891677 -0.00023761211 -0.0002947548 -0.0038725652 -0.0028815123 -0.0016857135 0.0023464474 -0.0007518835 -0.0015964161 -0.00075441884 -0.0029481752 0.0037281367 0.00117703 0.0025666188 -0.0025039713 0.0023773753 -0.00042005366 -0.0041753836 9.644723e-05 0.0010215124 0.00023879518 0.0020847314 -0.0015716867 -0.0037927965 0.003132595 0.0029672745 -0.00058985036 -0.00017109886 -0.0022348557 -0.0027642646 0.00022977656 -0.0029536095 -0.00040781416 -0.0024454368 -0.002555157 -0.0006574992 0.0033010375 0.0032375983 -0.0036595033 0.0034247253 -0.000390829 0.0021305752 0.00399783 0.0028817926 0.0012622579 -0.0028606683 0.001460734 -0.0042909677 0.0024815667 -0.0037317085 0.0007089727 0.0005757179 0.00014783297 0.00036137298 -6.0652055e-06
4 0.00045104788 0.00029585935 0.0031042604 0.0011887787 0.0012932022 -0.0011229396 -0.0015569757 0.003539297 -0.0018789946 -0.001553782 0.0014320025 0.00022296775 -0.0019099482 -0.0022517943 0.0017404644 -0.00072584656 0.0033233548 -0.0041058064 -0.002097377 -0.00020163522 -0.00068726094 0.0034611376 -0.0033120145 0.0009810232 0.0016017758 -0.003193446 -0.0007549074 -0.0023420528 -0.0037602717 0.0032187866 0.003910372 -0.0037583206 0.00332017 -0.00024437925 -0.004268304 0.0009923939 0.00012249184 -0.0024581617 -0.0031882674 0.0007527991 -0.0031137974 -0.0026779342 -0.00095872785 0.0040609557 -0.0038283349 -0.0015949599 -0.0028058728 0.0014578457 0.0024227153 0.0023079517 -0.0030280075 -0.00309828 -0.0023078353 -0.000110990135 0.0046292027 0.004058998 -0.0022778308 0.004048329 -0.0025394992 0.0033576332 2.3330405e-05 -0.0041937483 0.0002555371 0.0008955235 0.0013436516 0.0016636213 0.0024956213 -0.0019842219 0.0024413671 -0.003119462 -0.0027702465 -0.00023974729 0.00010032791 -0.0049262824 0.0028993464 -0.0013688952 -0.0034167531 -0.0022026014 0.0015661538 -0.0012841127 0.0026284407 0.0037023444 -0.00067824725 0.0010721162 -0.0015623876 -0.00018474887 -0.00056935125 0.0021340528 -0.00011741732 -0.00094304234 0.0012224916 -0.0045453296 -0.003705299 0.0023737743 -0.00046838855 0.0005573154 0.0016063948 -0.00021902175 0.0021933874 -0.0004924172 -9.863052e-05 0.0012736853 -0.002694967 -6.601749e-07 -0.001483346 -0.001081995 -0.0037524542 0.0025418443 0.0037315977 -0.0001367702 -0.002296558 -0.00093397585 0.00406015 -0.0046868906 -0.0022944217 -0.0011480318 -0.0006522886 0.0024971336 -0.0005242845 0.004379665 -0.003919487 0.0011556583 0.0007417994 -0.002270515 0.0016476141 -0.0027948471 0.003636691 0.00047186896
1 0.000761177 0.003257655 -0.002703434 -0.0022966568 -0.00014221256 0.0033556377 0.0014244218 -0.0014165347 0.0010149399 0.0030463545 0.0025457777 0.00073449645 -0.004113056 0.00060909585 -0.0015076136 0.0010314027 0.0017745458 -0.003653439 -0.004161267 0.0034411873 0.004061507 -0.003442718 0.002218086 -0.003925758 0.0026604112 0.0034090115 0.003231944 0.0020942653 9.240682e-05 0.00028328734 -0.0013224706 -0.0013996705 0.0040210327 0.0023701494 0.0020880718 -0.0021995022 0.0012581199 0.0036495156 0.0006913791 -0.0013261253 0.0035729506 -0.004201246 -0.0027501245 0.0032203915 -0.001542133 5.15845e-06 -0.0029924933 0.0026260149 0.0019506903 0.0019490998 -2.7856844e-05 -0.0023959707 -0.0032313513 0.0017551039 0.0035814454 0.001312438 -0.002952162 -0.000183757 -0.0013359374 -0.00029768335 -0.003240949 -0.0008166735 -0.00038032074 -0.0030077957 -0.0030031828 -0.0014366487 0.00048487593 -0.0004475371 -0.003540889 -0.0033581096 -0.0007230413 -0.0012993823 0.0025072044 4.1029787e-05 -0.0032933499 0.0027602175 0.0025781505 0.0028510238 0.0023550638 -0.0008005334 0.0005043516 -0.0012562573 0.0011579777 0.00083505054 0.0019341451 0.0019044739 -0.002489614 -0.0010997332 -0.0024944188 -0.003915523 -0.0001775199 -0.0039742202 0.00017640863 -0.0003401745 0.0039409506 0.0041784346 0.0016256981 0.00047563214 -0.0026939074 -0.0034564142 -0.0009352412 -0.0016664335 -0.001574831 0.0011884784 -1.3165587e-05 -0.0031311123 0.0027372818 0.0023415266 0.0019771322 -0.002461381 0.003993163 -0.0041232454 0.0029439423 0.002284809 -0.002084822 0.004000783 -0.0033049684 0.0024661517 0.0005671564 -0.0015331411 0.0030518146 0.00012583315 -0.0035183225 -0.00021927565 0.0005460435 0.0025458194 -0.0030441065 0.0026649968
2 0.0010935564 -0.0020898827 -0.0033578123 -0.0028801137 0.000584619 0.0023907134 0.0013939468 1.2031014e-06 -0.0034199622 0.003127938 0.003544415 0.001211554 -0.0027918639 -0.002843638 0.001796394 0.0035616811 0.0012448855 0.0025424089 0.000668315 -0.0037235003 0.0028308807 0.0038968597 -0.0040663593 -0.003796271 0.0028001792 0.0017515009 0.0011132101 0.0023549239 -0.0016363773 0.0025957185 0.0022981726 0.0003175408 0.0026916447 -0.00059613795 -0.0044359695 0.0019833704 -0.0031731303 -0.0036545107 -0.0034899914 4.5419656e-05 0.0003611016 0.0022484162 0.0025459793 -0.0010039102 0.0037690485 0.0013094137 -0.0014578146 -0.003107913 0.0026974657 0.0026611122 -0.002762602 0.000118758166 0.0023074853 0.0016402391 0.00071278727 0.0004340451 -0.0023581148 0.0016236566 0.0011928325 0.0036487968 -0.0003053445 0.0027084243 0.00022427138 -0.0013525293 0.00054613786 -0.00299116 -0.00024162824 0.0020313945 -0.003983889 0.0037363397 0.0021731036 -0.0032203174 -0.0005836046 0.0010820203 -0.0016047414 -0.0015469039 0.003283077 0.0012861259 -0.003213308 -0.0004385435 0.0035667527 0.0026434972 0.00052133604 -0.00257111 0.0038525907 -0.0028839954 -0.0026558742 0.0024738756 0.0037705984 0.0011312044 -0.0026283418 1.571676e-05 -0.0036291224 0.0029040452 0.0028248504 0.003431374 -0.0023157601 -0.0005970478 -0.0021960866 -0.0007388214 -0.0011743917 0.0025710003 0.00079888833 -0.0010284251 0.0023879474 0.0031039936 -0.00058128434 0.0019013037 -0.001440282 -0.002959702 -0.0024892322 0.0028082016 -0.0008016525 -3.7864425e-05 -0.0002255163 -0.0028406149 -0.0015902978 0.0024717615 -0.0013679457 -0.0027901318 -0.004305339 0.00083475304 0.003357344 0.00045530515 -0.0021006162 -0.002359804 -0.0016664885 0.0005213765
7 -0.0021540532 -0.0025120922 -0.0022067628 0.0015427703 -0.0027386188 -0.00042957565 -0.0037915322 0.003878473 0.0028341291 -0.002995757 0.00034711524 0.001845388 0.0012987526 0.0016618365 -0.0006115484 0.0024420037 -0.0030493874 0.0010060838 -0.003587749 0.002552708 0.0009266541 -0.003636163 -0.00291873 -0.0025563883 -0.0027712046 0.0025484546 -0.002942192 -0.0018138553 0.00213824 -0.0012672306 -0.0016127229 -0.001010217 0.00022745844 0.0031351973 0.0016993997 -0.002191877 0.0030144076 0.00018445068 -0.0008639938 -1.3671823e-05 -0.0020810403 9.183197e-05 -0.0015973751 0.0032018549 -0.0030730346 -0.003046921 0.0026700972 0.0014289358 0.0011492493 0.0021640358 -0.0011414309 -0.0033395141 0.0035177262 -0.003606455 -0.0017320045 -0.0029844441 0.0027473238 -0.0005206438 0.0030153806 0.0022956983 -0.000524319 0.0021255468 0.0015745499 0.00350193 0.0022489256 -0.0017182278 -0.0025145016 -0.0030661784 -0.0012175379 -0.0031563013 -0.001207191 0.00063688355 0.00013981732 0.0021774315 0.00368346 -0.0027940178 0.003572221 -0.0018182391 0.0014336183 0.0019042916 0.0033243215 0.001432442 0.0030385656 -0.00034863394 0.0020581586 0.0013536968 -0.0021149572 0.0032126766 -0.00333431 -0.0024194398 -0.00027550143 -0.0039938856 -0.0026124096 0.0012739397 0.00071423256 0.0041219 -0.00012107324 1.6175276e-05 -0.0027783895 0.0032945378 0.0031062618 -0.0017620339 -0.00025437202 -8.246869e-06 0.00082735467 -0.0021080438 0.0011858701 0.0023107415 0.00075720856 0.000827091 -0.00033903937 -0.0043107923 -0.002380455 -0.00057176396 -0.0024775988 -0.00027529744 0.0034663565 -2.7003312e-05 -0.0017556609 0.004207354 -0.0012691171 -0.0023783685 -0.001901668 -0.0013389086 -0.0040750992 -0.00061223994 0.0004130338 0.000105788575
8 -0.00043876862 -0.0005628966 -0.0020521749 0.002149716 -0.003789875 -0.0011222326 -0.003032656 0.0017000207 -0.0003241128 0.0036507566 -0.0023890596 -0.00025180043 -0.0025238937 0.0008478949 6.175424e-05 0.0014526141 -0.00065978925 -0.003837076 0.0025974729 0.0027079724 0.0025304859 0.0011375619 -0.003955167 0.00240666 0.0034016136 0.0012591236 0.00093322125 -0.0036777451 -0.003912391 0.003161687 0.0006515719 0.0026639816 0.0016460549 0.0022556852 -0.0036374235 -0.003603774 0.00038680466 -0.0017570029 -0.0032659997 -0.0035907151 0.0034348236 0.0037317465 -0.0006099723 -0.003523463 0.0034076755 0.0017077563 -0.0036340668 0.0023871905 0.0034048648 0.003835147 0.002537206 -0.0021399215 0.0009347748 0.0006522842 -0.0028930968 0.0019006061 -0.0017742431 -9.8368546e-05 -0.003661958 0.0018705189 0.00039557178 0.00032504532 -0.0029255247 0.0020320076 0.0005424255 -0.0009973084 0.0002899964 0.0025544055 0.0023010762 -0.001930424 0.0013691747 0.0039045662 0.001104552 -0.003292371 0.0012247607 -0.0014378516 0.00063636113 -0.0039146324 -0.0011064729 0.0025512294 0.0010612663 0.00051954214 -0.003718584 -0.0013873477 0.00092157675 0.0023298191 -0.00066707435 -0.0023762514 -0.0006528967 0.001599051 -0.003506184 0.0011909973 0.0038991666 0.0016284173 -0.002647719 -0.0020666316 -0.002982696 0.0022652193 0.0032750869 -9.3978786e-05 0.0030330906 -0.00026453348 -0.003953156 0.0014916505 0.0009788296 -0.0014196062 -0.00094313396 0.0015394777 -0.00208447 0.0034692336 -0.0023559786 -0.0034762481 0.0027253653 0.0016166226 0.0010239457 0.0005791108 -0.0003894454 -0.0012423409 0.0025054778 0.00244715 0.0005689121 -0.0017533563 -0.0025519796 -0.0005801223 -0.0030820677 0.0026880412 -0.0036584137 -0.0025117507
0 -0.0020546785 -0.0022367884 0.001161828 -0.00237297 0.00034194888 0.0034553956 0.0014773885 -0.0014430948 0.0025079532 0.002517334 0.0012162885 0.0014681545 0.0014325463 -0.0021208199 -0.0030914268 -0.0022889024 -0.0021005187 -0.0009267695 -0.0007872285 0.002347387 0.002534277 0.0005205051 -0.00073028036 -0.00044153252 -0.0016970839 -0.0036260847 0.0021558737 -0.0035026434 0.0021155053 0.0025548935 -0.0030655116 -0.000106180436 -0.00039498298 0.0027921582 0.00071635976 0.001149984 -0.00144814 -0.003079196 0.00095253316 -0.0006284497 0.0007422107 0.0011442354 -0.0015746342 0.0032401984 -0.0038185813 -0.0029656237 0.00061604864 -0.003570129 0.0017872227 -0.001206154 0.0017926535 0.003112327 -0.0016856135 -0.00053767546 -0.0018959428 0.004104697 0.0018237844 -0.0032807756 0.0013209893 -0.0035186363 0.0030560968 0.0037366145 -0.002592445 0.0021457367 -0.0027369594 0.003130443 0.0033442297 -0.0029145267 0.0023591693 -0.00033912554 -0.0017857981 0.00042590665 -0.0019555981 -0.0035619738 -0.0018315435 -0.0007986451 0.0013685769 -0.0007062227 -0.00044116104 0.0018924964 0.0035264753 -0.0023955856 -0.001671597 0.0011287619 -0.0034880068 -0.0037157387 0.0020973263 -0.0004776514 -0.001926499 0.0033469836 0.0014646349 0.0015533711 0.0010321133 -0.0013531616 0.0025888828 -0.0011875541 -0.0038408674 0.0006265623 0.0030585793 -0.00036923954 0.0032693322 -0.002062913 -0.00043038634 -0.0036832422 0.00092559506 -0.0013168079 0.0019373453 0.003492564 -0.0013786979 0.0031366695 0.00060689764 -0.003215997 -0.0029770075 -0.003468435 -0.0020645505 0.0003937408 -0.0025036302 -0.003452318 0.0011692386 0.00064776617 -0.0038030709 0.001580812 -0.0005953003 0.001627327 0.00025482915 -0.0038710549 0.0032769884 -0.0013431889
6 0.0037228838 0.00081439206 0.00012637452 -0.0021506562 0.0019241221 -0.0035170438 0.0008867178 0.0010734738 -0.0014015081 0.0010009907 -0.0021093073 -0.0015701411 0.00035809883 -0.003932427 0.00034991736 -0.0011122195 0.0039940374 -0.0024472019 -0.0037093447 -0.0007314328 -0.0027232168 5.1950567e-05 -0.0015624202 -0.0014253423 0.0026802355 -0.0034219201 0.0027648187 -0.0023885567 0.00043097654 0.002073254 -0.0036722007 -0.0009267954 0.00030206155 0.0017999714 -0.0025299997 0.0021389655 -0.0033189151 0.0026523164 -0.0019109271 0.0023783785 -0.0009382477 -0.0019232878 0.0036909366 0.0005958229 -0.00035739076 -0.0019129552 0.0010627146 0.0013522711 -0.0025530183 0.00095555146 0.0036318437 -0.003538619 -6.7987494e-06 -0.001902434 0.002622951 0.0033589671 -0.00094570656 -0.00154644 0.0031255935 0.0010551113 -0.002050896 -0.0038550114 -0.0017683469 0.00016110753 0.00048537974 0.001179852 0.0020005757 0.0026587574 0.0032002027 -0.0029925185 -0.000533713 -0.00048697105 -0.0029246954 -0.0010619621 0.0028135679 0.000104645296 0.0033744941 -2.8812254e-05 0.0029437798 0.0020057943 0.002989426 -0.0006244734 -0.0011782444 -0.0024749776 0.0019168473 -0.001391436 0.00018071939 0.0030896633 -0.0020281083 -0.0032348752 -0.0029803535 0.0013305262 -0.0020043203 -0.0018573223 -0.0031045661 -0.0008559119 -0.00036900907 -0.00042080707 0.0011032656 0.0013905994 0.00042579795 -0.002252698 -0.0029764266 -0.0010574196 0.0031520685 0.00058546785 -0.002795422 -0.0018236018 0.0013086232 -0.002060384 0.0038933442 -0.0006419323 -0.0020299088 -0.0010536403 -0.0019810773 0.003971825 -0.0018990713 -0.00032381288 -0.0007066792 0.0031049477 0.0027297495 -7.699634e-05 0.0013317968 -0.00018078658 -0.0027574808 -0.0026235743 0.0024731145 -6.494801e-05
9 -0.00011762119 0.002251403 0.0009280595 -0.0013175475 0.0019017288 0.0018862184 0.0015256534 0.0032166685 0.00041625355 -0.0016148662 -0.0037468972 0.001745504 0.00031402308 0.0013990931 0.002845901 -0.0022466436 0.0006272325 -0.0014595662 0.0017891054 0.000102763806 -0.0007167555 0.0014847963 -0.0027488386 0.0006766005 0.0022195557 0.00022562387 0.0025277482 0.0024711895 0.0021911524 -0.0036764205 0.0026070562 -0.0028415434 0.0020090297 7.192533e-05 -0.0019281554 -0.0036241524 0.0028929207 -0.0035868785 -0.0014003587 0.0023428956 -0.00285634 -0.0007014674 0.0002670759 -0.0031365126 -0.00024650496 0.00150526 -0.0002761535 0.0002005524 -0.001311241 -0.0024297414 -0.002746424 -0.0022545597 -0.0008489708 0.0011455881 0.0014607265 -0.002249564 -0.0013087087 0.0007982949 0.0016559676 0.0026109775 0.003365128 -0.00184309 -0.002975361 -0.0021389527 -0.0028945573 0.0017971098 -0.0037821138 -0.00282793 0.0033072594 0.0021315059 -0.001674378 0.0021589398 6.679664e-05 -0.0035730987 0.0037050587 0.002164262 -0.002812235 -0.0004015394 -0.0033914763 -0.0005086861 -0.0014245249 0.00094727194 -0.0029291275 -2.6187567e-05 0.0017697011 -0.0021405306 0.0011753405 -0.0033302675 0.0031653615 0.0020233642 0.0021898889 0.0022911674 0.0013671247 0.0009744935 0.0011786586 -0.0017441963 -0.0026377852 -0.0020805423 0.0015261238 0.0026954685 -0.00046306758 0.0037623914 9.670692e-05 0.0034421282 0.0018134965 -0.0032315596 0.0032446957 0.0013832175 -0.0037888673 0.0022149584 0.00077720854 0.0016670012 -0.00053865503 0.0014602502 -0.0020171755 -0.0035584173 -0.0007314324 0.003259367 0.0012483059 -0.0027146828 0.0022412417 -0.0031801048 -0.0009828632 0.002075365 -0.0020174356 -0.0014551348 -0.0025193512 -0.0022649448
5 -0.0013703305 -0.002622843 -0.0011422822 0.002797693 0.0025744739 -0.001089452 -2.9408071e-05 -0.002168767 0.0032314495 0.0013609338 0.0033796832 -0.0023141692 -0.002554458 -0.001234632 -0.0043276804 -0.0032621296 0.0022953644 -0.004030757 0.0013819077 -0.0026645828 0.003731641 0.0030806032 -0.001781673 -0.002219531 -0.0017909671 -0.0033317069 -0.0032820571 -0.00092365104 0.00014426836 0.002529893 0.0031593165 -0.002638017 0.0018722063 0.0002013841 0.00042156578 -0.0012089765 0.0034774796 0.0018835611 0.0023392849 0.001260672 0.0013764173 -0.001358788 -0.0026148646 -0.0031234112 -0.0021860232 0.0030141056 0.0012761654 -0.0015107612 0.0013897759 0.0015378512 0.0031233043 -0.001617492 -0.0038588427 -0.003651056 -0.0020044707 0.0028532692 -0.0021200546 -0.0015861442 0.0024010784 -0.0022226525 -0.002549311 -0.0029092883 0.0036186771 -0.0014374478 0.0019686846 0.001124667 0.0040863566 0.0028960435 0.0024869114 -0.0026289918 -0.0006855325 -0.0010193177 0.00069586036 -0.0027097599 -0.0011357912 -0.000587832 0.0015464822 -0.003373097 -0.0015696421 -0.000114153096 -0.0025563603 -0.0028718817 -0.00044340565 -0.0002007043 0.0039883475 -0.00031969856 0.0036304635 0.00063029263 0.00095021405 -0.001416658 -0.0041912133 -0.0021309457 0.0038563074 0.0006620228 -0.0015844573 -0.0011489629 -0.0009187178 -0.002957211 0.002501768 0.0040353164 0.0026391665 -0.00064877665 0.0005806252 0.000656332 0.0018379659 0.0010568657 0.0033768422 0.0026300712 -0.0026185813 0.00321969 -0.0007478404 -0.0003426551 0.00011877353 -0.00078694674 -0.0033456138 0.00018652118 -0.00048301544 0.001104879 0.0022334792 -0.0011891085 -0.00087406056 0.0037661355 0.0022793058 0.0010297142 0.0015562483 0.0010194643 0.0037292598 0.0019241067
