14 128
3 0.0033034813 -0.00057909905 -0.0024748268 0.0021631103 -0.0003827591 0.00018759945 0.0017836846 -0.0059065144 -0.001987092 -0.0027520824 0.0040746466 0.0045268186 -0.0036762631 0.0012296981 0.0004786824 -0.0018719448 -0.0038416167 0.00358192 0.00022613781 0.0029990028 0.00030250722 -0.004353843 -0.0033756588 -0.006440977 0.0013767937 -0.002667183 0.0025267529 -0.003235892 0.002960761 -0.0036187577 -0.0017903404 -0.0028382002 -0.0020567982 -0.0015232506 0.0011393627 -0.0013502283 0.00093186036 -0.00013505014 -0.0016117195 -0.002186489 0.004219912 -0.00260884 -0.0019175345 0.00075666624 0.0010469005 -0.004511746 0.005238187 0.002219469 0.003952074 -0.0038606622 0.0031409315 0.002916069 0.0004928863 -0.0024151113 -0.0049564936 0.004176979 0.0013376806 -0.0052501317 -0.00064821134 0.0021481623 -0.000935874 0.0011725397 -0.0022368599 0.0041163694 0.0035405597 0.002195073 0.0053057047 -0.00085746596 0.0039871163 -0.0017268142 -0.0032480613 5.363034e-05 -0.004116335 0.004253415 0.0004111082 -0.0013809399 0.0016820646 -0.0006135944 -0.00045430797 0.0023482407 -0.0033625592 0.0013692263 -0.0026915567 -0.00023095892 -0.005607637 -0.0009751963 0.003341455 0.0003211995 -0.0021032707 0.0016996879 0.0011461285 0.0023522298 -0.00078738254 0.00084491883 0.0036738056 0.004425648 -7.242222e-05 -9.790796e-06 -0.0029383786 0.001444594 0.0015807131 -0.0043079397 -0.0010900515 0.0019759005 0.0020025645 0.0033222868 0.004645085 0.00084829604 0.0049204472 -0.006119058 0.0014308916 -0.0030053924 0.000481324 -0.0052024336 0.002814835 0.0017578868 -0.0013371446 -0.00027255915 -0.0037030266 0.0053255386 0.0020233905 -0.0026374306 0.0037745764 0.0025170825 0.0003042377 0.002359269 -7.77947e-05 -0.0045971773
, 0.0043299966 -0.0007844129 0.0008151428 -0.0027001002 0.0008510866 -0.004277767 4.0458035e-06 -0.0058052135 0.0014774107 -0.0033499086 0.0041359966 0.0009629979 -0.004275333 -0.0010449114 -0.004468984 -0.0035333764 -0.0040988303 -0.0012911295 0.0045430525 0.0020629745 0.0030876203 -0.0016242195 0.003257578 -0.0057435567 0.002765008 -0.0028978959 0.0008786553 -0.004418246 -0.001787816 4.3509724e-05 -0.0025332952 -0.004277628 0.0018085059 0.00021064797 0.0037465484 0.0009866145 0.0037796665 -0.0039049832 -0.0011479546 -0.0014083731 0.0021485193 -0.0012441919 0.0020302904 0.0040277303 -0.0030692818 -0.004928774 0.0046765185 0.0035159956 0.0014963849 -0.005517418 -0.0011295547 0.0026297779 0.0008238523 0.0008407217 -0.004721853 0.0037148094 -0.0033098343 -0.0033995984 0.0041781897 0.0003566973 -0.0024251118 0.00079734024 0.0005946087 0.0026828726 -0.00057946413 0.0029348985 0.0050836764 -0.0036342188 0.00089741964 -0.0039182375 -0.0028313997 0.0018246202 -0.0037425945 0.00015562968 0.004506249 0.0008432386 0.004168827 -0.0047823596 0.0027968523 0.0030147145 0.0033354573 -0.003236005 -0.0033258675 -0.0052613774 -0.0034808668 0.0016468995 6.733006e-05 0.0033384904 -0.0029896968 -0.00166116 0.0018125906 0.0013497764 0.0039486866 -0.0033515156 -0.001501495 0.002736823 0.002928884 -0.0018289549 -0.00028029107 -0.003614634 -0.0016462278 0.0012155818 -0.0032036148 0.0014329666 0.0021671099 0.0024403064 0.0043044677 -0.0046912045 0.004337321 -0.0021636218 -0.0008242555 0.00056157284 0.0037825184 -0.002496222 0.0027053081 0.00070483994 -0.0012860799 0.0036869098 -0.0045212046 0.0059394105 0.00011190976 -0.004038837 0.003747718 0.00010625801 -0.0049984525 0.0033472818 0.0028939946 -0.0043197037
  0.0037042259 0.002848923 -0.0003920603 0.0027384104 0.0036303606 -0.0032956982 0.001274045 -0.004367475 0.000110514906 0.00096892664 0.0036515964 0.00017853944 0.00054403953 0.0023834298 -0.0038702495 -0.00027418218 -0.0005200052 -0.0036981718 0.004780783 0.0013376208 -0.0015632162 0.002128701 -0.0005863755 -0.0043584583 -0.0017208145 -0.0034676704 0.004228686 -0.0014492263 0.0034128663 -0.00096901285 -0.004163994 -0.0014134317 0.0011892024 0.0026499468 0.0013933093 0.0026418276 0.0008555253 -0.0035047114 -0.0013823691 0.0018563943 0.0041682343 0.0012860178 0.0008921819 -0.0025691616 0.0035736787 -0.0011155916 0.0015635252 -0.00050388183 0.0005253084 -0.004931816 -0.0035324532 0.0023900392 -0.0022476106 -0.004126589 -0.0006637632 0.0043999907 -0.0033409568 -0.003884325 0.004178497 -0.0008426274 -0.0045294357 0.00073389796 -0.0031233192 -0.00062511856 0.0020608115 -0.0009601917 0.0036579855 -0.0009235012 0.0004022994 -0.004215405 -0.0035009177 0.0018775098 -0.0027206447 0.0003325723 0.0027667491 -0.0022405314 0.0018037113 -0.005461248 0.0011897826 0.001631681 0.0024649415 0.0017703067 0.0019641467 -0.003538311 -0.0006550659 0.004065424 0.0022011092 0.0011366108 0.00031174553 0.00051632564 -0.0021776138 0.0028540958 -0.0009627861 0.00233581 0.0037441063 0.0007962727 0.0011697165 0.0005668427 0.0005640666 8.420267e-05 0.0029288367 -0.0027978197 -0.0018515195 0.0024573023 0.0011197871 0.00014999781 -0.0014110194 0.0015074413 0.003186868 -0.0044373693 -0.0040198974 -0.0015239661 0.0036797288 -0.0037411815 0.0045941053 -0.0017124731 0.0011879754 -0.001748384 0.0010974245 0.0051286183 -0.002695336 -0.00055757666 0.0045349197 -0.0008664066 -0.0024528468 -0.0012198552 0.0021736587 -0.0030137987
[ 0.003942906 0.0047360472 -0.004486438 -0.0030234002 -0.0021061134 0.002803535 0.002102707 -0.0051361048 0.0018851259 0.00038662864 -0.0024885782 0.00024115079 0.0022890978 -0.0009899304 3.542674e-05 0.0032909228 0.0008116306 0.002506882 0.004194566 0.0040394817 -0.0011931665 -0.0028204063 -0.0028279608 -0.0032543645 -0.0015499003 -0.0019959253 0.0039022032 0.0014336838 0.004402006 -0.004821549 -0.003673657 -0.0038720071 -0.0033010812 0.0006291363 0.0033663022 -0.00030663266 -0.0007077255 -0.0011725236 -0.003213098 0.0046883007 -0.00226716 0.0028791067 -0.002763175 0.0045968452 0.0028450745 0.0028920746 0.0033494092 -0.002664614 0.00057060795 0.00011970881 0.0033796784 -0.0026471487 -0.0002986417 0.00042122247 0.00174204 0.0018143948 -0.00331418 -0.0028536506 0.002467117 0.00045491636 -0.0034646622 -0.0025373644 0.00035170236 0.0032985536 0.0035824457 0.0039510773 0.0057267984 -0.0047033513 -0.0014841908 -0.0024290485 0.0023630997 0.0010630233 0.0016377403 0.0029751412 -0.0016694097 -0.0032357858 0.0013303803 -0.0046910406 3.175285e-05 -0.0008430293 -0.0005746176 0.0022432867 0.00089462125 -0.0031104542 -0.0041262237 -0.0021381928 0.0029704492 -0.0032359664 -0.004233771 -0.0004739034 0.0029060938 0.0026260228 0.0049062017 -0.0015688941 0.002095222 0.0052382313 0.002502543 -0.00083665847 0.0021972293 0.0027477888 0.0018459756 -0.0041429754 -0.0032691064 0.00056584436 0.002469634 -0.0015438106 -0.0008990853 -0.0039288467 -5.9136284e-05 -0.0029256225 0.0022249448 -0.0006571072 -0.001614041 0.0005836167 -0.0005593446 0.0011238804 0.0029636486 -0.001526599 -0.0024483067 0.0033719952 0.0029432813 -0.0037534162 0.0022932584 -0.004533898 -0.0031309328 0.0037182898 0.0013396441 0.0028692768
] -0.000476493 0.002282237 -0.00418939 0.0014164095 -0.0028659282 -0.004370936 0.0046352753 -0.0058419467 -0.0017226283 0.0026824633 0.00091482024 0.0005314641 7.5643184e-05 0.0020134028 -0.0017422567 0.0027131122 -0.0018236891 0.0022249578 0.0033248414 0.004460941 0.0027372635 0.0016844522 0.0012199925 0.0009002437 -8.312837e-05 -0.0029730503 0.0006576963 0.0013730959 0.002097517 -0.0013892407 -0.0027422507 -0.0015694076 0.0009749143 -0.00019890291 -0.002373261 0.0015887711 0.0023206717 -0.0008135806 -0.0007099707 0.004271911 -0.0021190066 -0.0005598634 0.0022972706 0.0006412716 0.001752232 -0.0017055853 0.0027829432 5.555831e-05 0.000840106 0.0011609285 0.0028054877 -0.0025222015 -0.0033362003 -0.00034797605 0.00067946274 0.00453269 -0.0011285549 0.0003490369 0.0037443095 0.0037046378 -0.00014642256 -0.00012012459 -0.00051265984 0.002927255 -0.002374254 0.002911446 -0.00040476542 -0.0046590944 -0.00193343 0.0024611736 0.0011229401 0.003657113 -0.0024792433 0.0005728126 0.0023218978 -0.0010075315 0.0026030398 -0.004550889 -0.0024488652 -0.0028226636 -0.000446082 -0.0029888963 -0.0040147533 -0.0003505796 -0.00508198 0.001932759 0.004331017 0.0009940345 -0.0038336667 0.0010932778 -0.0011975993 0.004467843 -0.0014799997 -0.0034296745 0.004217308 0.00074978615 0.003177464 0.0023993657 0.00056302396 0.0024720477 0.0014003012 -0.0029654086 0.0008112363 0.0004455546 0.0018174758 -0.0024053224 0.0042940234 -0.0012071958 0.004099922 -0.0046656397 0.0013741114 -0.0038102523 0.0030489855 -0.0040740464 -0.0021402428 0.002458591 0.0006796449 0.0039792564 -0.002643474 0.004943452 -0.0029565815 -0.0006958384 0.004179641 -0.0042337882 -0.001885285 -0.00107913 0.001264666 0.0030999957
4 0.005068455 0.0016327754 -0.0032630004 0.0021228124 -0.0015760335 0.00015622363 0.0016081469 0.0016540199 -0.0022165873 -0.0010200657 0.0010333727 0.001638098 -0.0028099043 0.0013515789 0.002244939 0.0006134036 0.002456283 0.00014783021 0.0050984016 -0.0020393908 -0.0032287177 0.0007370497 0.00239815 -0.0026441799 0.0039636428 -0.0025842872 -0.0029308344 0.0029408445 -0.0004665684 -0.0020919968 -0.0036459565 -0.0032893694 -0.0021884604 -0.002404953 0.0041568987 0.0032104831 0.0025418748 -0.0044209734 -0.003814111 0.002922154 -0.0024346332 -0.0036386014 -9.192767e-05 0.0011033777 0.0034881376 0.000699589 -0.0012097849 -0.0006372657 -0.00024369222 0.00017966941 -0.0004212063 -0.0031620257 0.0009712368 0.00057149207 -0.0025963187 -0.0024675706 -0.0016938654 -0.0032795873 0.002911829 -0.0018910959 -0.001385604 0.0037764541 0.0023475047 0.0047360975 0.0021938984 0.0019627365 0.003571562 -0.0009634134 -0.0004214377 -0.0013871539 -0.0017978739 0.0027546007 -0.00089497323 -0.0014063647 0.0031993857 -0.0016099077 0.00037597248 0.00011556891 -0.0036221968 -0.0015884965 0.0020800394 -0.0033986457 -0.00046109088 0.0012715247 -0.0021497144 -0.0009491296 1.5795813e-06 -0.00030868774 -0.002687875 -0.0029677285 0.0030314494 0.0027054404 0.0035964865 0.0030095042 -0.002837313 0.002688748 0.0047765933 -0.00025182156 0.0030548747 -0.00020372214 0.0013030027 0.0018809342 -0.0044542397 -0.0017860731 0.0004993848 0.0027439492 -0.002278371 -0.0017408266 0.0034660294 -0.004735404 0.0014517561 -0.0002324977 -0.0016336394 -0.0026406024 0.0029025995 -0.003583801 0.00087862805 0.001959472 -0.0025223487 0.0047210227 -2.3266493e-05 -0.0027246256 0.0016162263 0.0002043944 -0.0051014484 0.0039561996 0.00325382 -0.002656177
1 -0.0018919774 0.00014328746 -0.0004759253 0.0035723853 -0.002468619 -0.00032063798 0.0017257475 -0.002421275 0.0019339687 0.0013942551 0.0031501695 0.004118027 -0.00041803732 -0.0012057157 0.00034988782 -0.0014741545 0.0027894513 0.0025982114 0.0024532152 0.0009508939 0.00089016557 -0.00024840658 -0.0032587384 -0.003174611 0.0033230672 -0.0034248373 0.0031341389 0.002193218 0.0018521925 -0.0007076248 0.00016658724 0.0017428916 0.0010221071 0.0025777372 -0.0026572465 0.0016033408 0.0027278378 -0.0011081457 -0.0044121975 0.004284903 0.0015375016 -0.0030892948 0.0022907022 0.0023746518 0.0014850841 -5.8708614e-05 0.0012926789 -0.0037298747 -0.0036055008 -0.0034158796 -6.798237e-05 0.0028479972 -0.002058298 0.0010244665 -0.004230466 -0.00171607 -0.0010830075 -0.004432818 -0.0030889893 -0.0025504457 -0.0033555338 -0.0025996207 0.0005433375 0.00095524377 -0.002701748 0.0007850708 -0.0008944449 -0.00032320473 0.0007659857 0.002028328 -0.0013595908 0.00052088307 -0.00022660977 0.0027825544 -0.0014560707 0.002743232 0.0028269456 -0.0035351673 -0.0013256955 -0.0007784136 -0.0027155818 0.0027232086 0.0012326579 -0.0025431286 -0.003653643 0.0023568138 0.0026415235 0.0014393935 -0.00014003318 0.0025578164 -0.0005983395 0.002569952 -0.00050890166 -0.0033969374 0.0030922364 0.0017138635 0.0006537617 0.0011089172 -0.0014695466 0.0020709536 -0.0013813381 0.002955498 -0.0010973837 0.00063647423 0.0023408106 0.0035425473 -0.0019129304 0.00029424755 0.002818158 0.0011324766 0.002769707 -0.0032465768 -0.0021785756 0.0014080508 0.002421791 -0.0015208594 -0.0021760617 -0.0037185142 -0.00011491061 -0.00066223415 0.0007720894 -0.0041801096 -0.0025562784 0.00017086705 0.00038809102 0.0017319031 -0.0025973506 0.0013761675
2 0.0024487283 0.0021170261 0.0016334247 0.0013037978 -0.0025566053 -0.0006347229 0.004086142 -0.005862901 0.001483045 -0.0020007312 0.00044352503 0.004402319 0.00013586468 -0.0006321652 0.0018604972 0.004068446 0.0013645048 0.003583929 0.004641756 0.0022385246 -0.002148526 0.0019017244 -0.0023297365 -0.004055979 0.002911761 0.0024198205 -0.00017815386 -0.004006166 0.0045975763 -0.0023414386 -0.00018475314 -0.0006232252 0.0020487981 -0.0004923808 -0.0027766095 -0.002872614 0.002409911 0.0010201135 -0.005059436 0.0038480668 0.0033633593 -0.00036450799 0.0016856458 0.0034661673 -0.001206392 -0.0042943507 -0.0027369957 -0.0015022956 0.00228333 -0.0012089466 -0.001840075 -0.0020744305 0.0009889625 -0.0037545445 -0.0046412116 -0.0016389497 -0.0034373864 -0.0012643082 0.0050293966 0.0035361426 -0.0027658362 0.0019211052 -0.002260234 -0.0018388691 -0.002601136 0.00027659978 0.0053551635 0.0013462474 -0.003670626 -0.0006990379 0.0008591624 0.0031363002 -0.0043385834 0.0018587545 -0.000648497 0.0026476376 -0.0014585766 -0.0056215604 0.0008893405 -0.00040819988 0.0012713614 -0.0022951013 0.0011569209 -0.0007433303 -0.00089516153 0.0011753619 0.0045137214 -0.0027909249 -0.0044373716 -0.0032568679 -0.0034217625 -0.0001272008 0.0037839555 0.0020394141 0.0033586263 0.0037907246 0.004421599 0.00013565768 -0.0019195249 -0.0025682482 -0.0006509473 -0.0032466515 -0.0037795983 0.0019007347 -0.002497644 0.003418665 -0.0013008241 0.002595438 0.0025241475 -0.002917966 -0.000726433 0.0028136054 -0.0015823343 -0.00028020045 0.0015097954 -0.002646093 -0.0018144866 -0.00065392687 -0.001683509 -0.0017114718 -0.0013813656 -0.0009199032 0.004882609 -0.0040110038 -0.0047639613 0.0025806478 0.00021292914 -0.002539328
7 -0.0026640825 0.0029621671 -0.001343061 0.001642115 0.0019922203 0.001591804 -0.00069624395 -0.003851175 0.0012593115 -0.0036100624 -0.0015097703 -0.0008645269 0.0015564547 -0.0013816496 0.001202219 0.0005654812 -0.0019834682 -0.0006568369 -0.0012370141 -0.0024470943 -0.00124502 -0.0031826536 0.0024843446 -0.00023472118 0.0022274035 -0.0037527692 -0.0034557171 -0.0020332572 -0.0026511652 -0.0031014313 -0.0012305407 -0.001602115 -0.0006627915 0.0005716204 0.0019550289 0.00079016923 0.0018045652 -0.0033023898 -0.00011878989 0.0013034261 -0.00092360383 -0.00031073712 -0.0008835469 0.00078408874 -0.0029455018 0.0022709055 -0.002613765 0.00039858097 -0.00031681967 -0.0034498428 -0.00056005287 0.0027358802 -0.0024742489 -0.0016627875 -0.003101199 -0.002631406 -0.0010463875 -0.0009467164 -0.0010278283 -0.00019684892 -0.0006865431 -0.0025786643 0.002594895 0.0031556387 0.0019149189 0.00063139 0.0018992485 -0.0015594033 -0.0011826 -0.0016729827 -0.0015836593 0.002678944 -0.0008945408 -9.2614995e-05 -0.0016010837 0.0004323553 -0.003534029 -0.0041371486 -0.0003472655 -0.0028899314 -0.0015196083 0.0021616179 -0.00074744923 0.0014490774 -0.0025922188 -0.0030063307 -0.0016774029 0.00013376707 -0.0030902894 0.0031360346 0.0005156055 -0.0007010664 -0.0023569518 0.0017599823 -0.0035045797 0.002435238 0.0005732025 0.0011717479 -0.0019559448 -0.0038672597 -0.0013887649 -0.0021509677 0.0010056971 -0.00025257323 -0.0019123374 0.00047417305 0.00349481 0.0019455935 0.0028009887 0.00045912096 -0.0027367075 0.003039689 -0.0021471435 -0.00046535867 -0.0034867653 -5.795418e-05 -0.0017968479 -0.0031244832 0.00058508577 -0.001383393 -0.0025282924 -2.849834e-05 -0.0015886212 -0.002960109 -0.0038101377 0.0020664907 -0.001005166 0.003633097
8 -0.00062335056 0.0038054928 0.002226038 -0.00049778714 0.00020787865 -0.0013879281 0.0026403856 0.0018058901 0.00025481626 -0.0021086552 0.00024040343 0.00021072279 0.003417325 0.0023740968 0.0019953656 -0.0016469863 0.0013540938 2.6517178e-05 -0.0020510089 -0.00049360865 0.0027055908 -0.0006355849 0.0034990362 -0.0006797453 0.0008251953 0.0028961524 -0.0022329453 0.002565152 0.003303142 -0.0030583723 0.0014816553 0.0031796556 -0.0015802121 0.0017958921 -0.00027033908 0.003133865 0.0036071537 0.00029537448 0.0014229227 0.0024284357 -0.0018606897 -0.0020715622 0.0027926725 -0.00022343305 0.0031557796 -0.0037001162 0.003291263 0.0026262738 -0.0028898255 -0.0013182731 0.002835267 0.0036373711 0.0029110857 7.7167555e-05 0.0024763183 -0.0019776511 0.00048882136 -0.0024223975 0.001809978 0.00093192956 0.00018767237 0.0016421044 -0.0013519793 0.003954905 0.0012867142 0.0025695837 -0.0012582528 -0.0009791239 0.002097497 0.001958116 -0.0030989966 0.0033246828 0.0012185387 0.00042228977 -0.0019729112 0.0033785724 0.003510277 -0.0013611199 0.0032253643 0.00029108353 -0.002657134 -0.0033169354 0.00065047806 -0.0021227181 0.0018570079 0.003023788 0.0007909837 0.0036027275 -0.0027153569 0.0011756698 -0.0033290952 0.0024826718 0.0012150577 -0.001807827 -0.001826091 0.0030107384 -0.0021936127 0.003481006 -0.0013866791 0.0038663493 0.0024748142 -0.00023199718 0.0032778457 0.0037811883 0.003579702 -0.00300513 0.0001886556 0.00027985853 -0.0028305887 -0.004371056 0.003492583 -0.0030397861 -0.0034650688 0.00085933716 -0.0011047667 -0.0019520659 0.0020348702 0.003971913 0.0022321406 -0.0025510017 -0.0004302631 0.00052832544 -0.00067337643 -0.0031644264 0.0015834463 0.0038724912 0.003093944 0.00046908043
0 -0.00025789937 0.0031938867 -0.0005750469 0.00065694127 -0.002150131 0.002322233 -0.00281682 -0.0007566343 -0.002584497 -0.003208367 -0.0020000648 0.0013473777 -0.001979425 -0.0008175638 0.0020560622 0.0009390308 0.002312399 0.0009483195 0.0009406139 0.0007348802 -0.0012871615 -0.0034341672 0.0028031352 -0.0013927296 -0.002793684 0.0019611774 0.0012904601 0.0020405261 -0.002759062 0.0011767705 -0.0038497085 0.0032863002 0.0029920947 0.0039712847 0.0020072612 -0.0014692036 0.00217428 0.0009119776 0.000723332 0.002571484 -0.003017765 -0.0011621745 0.0023827394 -0.003401909 -0.0021146357 -0.0021299953 0.0038858985 0.00089339603 -0.00065511034 0.001592081 0.0035504568 0.0024516145 -0.0015749986 -0.0034665705 0.001216091 -0.0017667254 -0.0011960914 -0.002300308 -0.0010472613 0.0038656932 0.001261497 0.003253856 0.002421625 0.0013053906 0.0039212927 -0.0022523399 -0.0017442454 0.00095286436 0.0038541637 -0.00019977253 -0.0036220835 5.376796e-05 -0.0037128164 -0.0009520347 -0.0031751934 0.0032969308 0.0006569662 0.0015945511 0.002091792 -0.001500047 0.001423166 0.0019484797 -0.003951095 -0.00015460781 -0.0006117583 -0.00022744143 0.0028936695 0.0009593662 0.0020775388 -0.0020968697 -0.003596594 -0.001994177 -0.0030920361 -0.003775959 -0.00043750304 0.0034357624 -0.0012030439 8.519084e-05 -0.003179598 0.0013324782 0.0020506813 -0.00037228622 1.281123e-05 -0.0032364628 0.0010192844 -3.7829803e-05 0.0017836994 -0.0028764997 0.0029402627 0.0005005395 -0.0008071377 -0.0011011082 -0.0030453485 -0.0024800885 -0.0034206745 -0.0033122269 0.0034233131 0.00063906 0.0034641677 0.0011603513 0.0017671032 0.0023555874 -0.0015476734 -0.0024460298 -0.00088279 -0.0031335559 0.0032833081 0.0015168163
6 0.0029488052 0.00349286 0.00014109098 -0.0007560626 0.0032494508 0.002483465 0.0018678277 -0.0045183315 -0.0021489253 -0.0025994275 -0.0016053834 0.003465015 -0.0029162623 -0.0030677437 0.0008085767 0.0006176191 0.0012549007 -0.0014330737 -0.0022810097 0.0032890246 0.0021449125 -0.00069992285 -0.0014063991 0.0015063558 0.0034107885 -0.0030565606 -0.002727633 -0.0038792475 0.003828782 0.0005464237 -0.0028152214 -0.0015148873 0.0016986157 0.00064482837 -0.0004967055 0.0036492269 0.004186927 -0.0032071294 -0.0035910462 0.002422385 0.00065649924 -0.0034472076 0.0029378317 -0.0026821904 -0.0025613215 0.0033721905 -0.0020203122 -0.000120912126 0.001055224 -0.001066884 -0.0027137618 0.000102528684 -0.0035375978 0.00047585386 -0.00096794177 -0.0010581873 -0.004081005 -0.0029627706 -0.0026009122 0.00093433243 0.0025890076 -0.0006803925 0.0012550637 0.0017162539 0.002088213 0.00023014059 0.0014869873 -0.0010080545 -0.0002126036 -0.0007679413 0.00060198567 -0.0032882832 -0.0031220522 0.0041830684 -0.0016909553 -0.0036299932 -0.00045903385 -0.002243631 -0.003614332 0.0022940359 0.00092273636 -0.0012434445 -0.0040626107 -0.00063328457 -0.000491294 0.0016854182 0.003998388 -0.0038346592 0.002278871 0.0037185457 -0.0031152598 -1.2015862e-05 0.004288008 -0.00015001692 -0.0003535331 0.0032065252 0.001016535 0.0017611198 0.0023374483 0.0022531527 0.0035146028 -0.0009391287 -0.00038480898 0.0035546278 0.0031803853 0.0010431727 0.0040628137 -0.0018720339 -0.0017353158 -0.00256575 -0.0037918314 0.0013894476 -0.0031747613 -0.0039981576 -0.0009162947 -0.0026708555 0.00063047797 -0.00015710123 0.0021603012 0.00028865313 -0.0020538138 -0.0014139841 -0.00044707558 -0.00025086128 -0.0018047992 0.0033771954 -2.0484527e-05 -0.0033974661
5 -0.0013365687 0.001577599 -0.0023456675 0.0035053296 -0.0008470905 -0.0035425397 -0.00010596655 0.0012941166 0.0038314583 -0.0025798983 0.00030262396 0.0018576712 -0.0011941636 0.002114558 -0.00039428126 0.0023468502 -0.0029202884 -0.0038038108 0.00026287866 -0.00038367766 0.0020830138 0.00086088723 0.0015418802 -0.0004580333 -0.0005026368 0.0012284237 -0.00051973027 -0.0029389195 0.000909707 -0.0014135519 -0.0035378383 0.00049696123 0.0004008178 -0.00046544021 -0.0017687653 0.0012292729 0.002857401 -0.00303106 -0.0017081852 -0.0017463871 0.0028931953 -0.0038202254 0.0029967402 0.0016853049 -0.0019698804 0.0020646343 -0.0024829109 -0.0012145883 -0.0016417523 0.0010843864 0.001394416 0.0006861585 -0.000592064 -0.0028912048 -0.0019395413 -0.0029478448 0.0004352383 0.0034134316 -0.0006513711 -0.0011694529 0.00091677014 -0.0025577222 0.00074612634 0.0038640692 0.0014062645 -0.001346006 0.0042634667 -0.00021848569 0.0038364013 -0.0017113226 0.0003201435 0.0017506597 6.8204845e-06 0.0009229881 0.0012902317 -0.0017898364 -0.0031111604 -0.0003335152 0.0028469663 0.001285457 -0.0002246246 -0.0034415345 -0.00014539938 -0.0013246969 -0.0031299237 -0.002636768 -0.0020163762 0.00037166371 0.0012654907 -0.0035379904 -0.0018639914 -0.0023938045 0.0005147287 -0.0009883114 -0.0011011999 0.0026668054 0.003503239 0.0014794773 0.0030157045 0.00013796336 0.0017899049 0.002278685 -0.002207113 -0.0034087754 -6.972304e-05 0.0011100022 -0.0012798058 -0.0029084992 0.0036280584 -0.0044387355 0.0007426292 -0.001420919 -0.0005462972 0.0034001924 0.002036022 4.8348928e-05 0.0034274359 -0.0011866291 0.0020987669 0.004246676 -0.0010730614 -0.0024231088 -0.0010623174 -0.0019240673 -0.00062678545 -0.0018013036 -0.002622423 -0.0014712081
9 -0.0031833916 0.0017338664 -0.0009609023 -0.00013339947 0.0027366716 -0.0009394526 0.003924664 0.0030628846 -0.0028057215 -0.0012435999 -0.0035210315 -0.0008107338 -0.0014257706 -0.00028690576 -0.003371337 0.0022044645 -0.0014249957 -0.00047709365 -0.000710441 0.0024036826 0.0022864996 -0.00025581513 0.00017409962 -0.0031516382 0.002443509 -0.0016130925 -0.0004212545 -0.0022877813 0.0025636114 0.0032399483 -0.0010921101 0.003343789 -0.0033753621 -0.0006823085 0.00066273136 0.00068789715 0.0033025332 0.0014192993 -0.0029919413 -0.0026700532 -0.0029634119 -0.001344995 -0.0019532845 9.093128e-05 -0.0022969574 5.5150966e-05 0.0006787946 0.0013863845 0.0017113998 -0.0003577109 0.0035234236 0.0026877678 7.294887e-05 -0.0023071927 -0.0036191018 0.0038741282 -0.0026359123 -0.002840499 0.003618012 -0.0031854222 -0.0013495396 -0.0037379044 -0.0037693335 -0.0034302082 0.00052222697 -0.0009215219 -0.0013899711 0.0011022101 0.0027756738 -0.0016803171 0.0025963427 2.4065652e-05 0.0009349363 0.00061256037 0.0027446204 0.00032122695 -0.0009983325 -0.0021992936 0.0005378886 0.0018180737 0.00034900106 -0.0040302984 -0.0022748702 -0.0032972617 0.00068423053 -0.0029136275 0.00041186262 -0.001657369 -0.0026712113 -0.0021398717 0.0019507387 0.00030889382 0.0008231717 0.0009869873 -0.0035404507 0.0025207137 -0.0029797838 0.0018806902 -0.0005953086 -0.0031382474 0.0021292584 -0.00046572246 0.0014668398 0.001248575 -0.0014079058 -0.0027846652 0.003076955 -0.001025964 0.0012791372 0.0006017409 -0.0020497718 -0.0017674175 -0.0028616514 0.0034060918 0.00022724636 0.0007483064 -0.0033681719 -0.0013932484 -0.00056211423 0.0039641443 -0.0025088582 0.0006390549 0.0026430928 0.0026917567 0.0012655122 0.0015818896 0.0025866297 -0.0036764971
