14 128
3 0.0010480721 -0.0014915703 0.0033397488 -0.0025031057 -0.002642561 0.0036905715 -0.0016630526 0.0010658472 -0.000389983 0.004575854 0.0005072232 0.0018380439 -0.0052910205 -0.0035554871 0.0045296755 0.0001456678 -0.0025854146 0.0042429077 0.0041977935 -0.0037715046 -0.0011849726 0.0009191851 -0.0028925666 -0.0016248404 0.0009259877 0.004270067 -0.004891365 -0.0004437225 0.002462785 0.0014397482 0.00048420829 -0.0037135633 0.0031693531 -0.0012940045 -0.0004315615 0.0045447596 -0.0001635626 0.003831788 -0.0026954098 -0.0016141684 0.0030199615 -0.00046660323 0.002730902 0.0012402523 9.89245e-05 -0.0016297991 -0.0013789865 -0.00201142 0.00324568 -0.00417862 0.0013865974 0.004638568 0.00137355 0.0032147767 0.0019589278 -0.0025387995 0.0028412668 0.0001736042 0.0014378332 -0.0029316458 0.0005720867 -0.0037304854 0.0045632496 0.0016182023 0.0005619066 0.0012685015 0.003857861 -0.0027440127 -0.0012226055 0.002672514 0.0013891166 0.0020488272 0.0028121595 0.0006770125 -0.0016493794 -0.0035996677 -0.0042079473 -0.0006079044 -0.0016893017 -0.00044534873 0.003643189 0.0028656477 -0.002480023 -0.0033001765 -0.0033374657 0.0024703294 0.002568469 -0.00057693344 -0.0038983612 0.0023560075 -0.00071589387 0.0006346101 0.0023941793 -0.0011131704 -0.00068249565 0.00028674802 -0.0030095878 0.00278566 -0.0036736939 -0.0036354084 0.0014347623 0.004704504 -4.6439007e-05 0.0030984627 0.000723129 -0.0013745971 0.0030116935 0.0030977565 0.0008295543 0.0021965916 0.001957952 0.0047345357 0.0034644324 -0.0003388742 -0.004747244 -0.0027095734 -0.0018373774 -0.002651272 0.0016133445 0.002663429 0.004099893 0.0035140144 0.0021008716 -0.00024201641 -0.002412094 -0.0027148966 -0.0031417143 -0.0015569645
, -0.0012968327 -0.0042572804 -0.0016681716 -0.0029434145 0.0025219857 -0.00019223441 -6.4601685e-05 -0.0035386789 0.0022213794 0.005432893 -0.0011214835 -0.0013351273 -0.0051596034 0.003186109 0.0041691274 -0.0007787557 -0.003829055 -0.0021189614 0.0047110957 0.0006949287 0.0030512605 0.002553244 -0.00026231183 -0.0041718585 0.0011822227 0.0031176235 -0.0019808612 -0.003311455 0.00036349814 -0.0035532927 -0.0032338419 -8.682282e-07 -0.0005823788 -0.0028192033 0.00028302678 0.0023069398 0.0044169053 0.0018898096 -0.004756836 0.003577092 -0.0006420907 0.0006978106 0.0021715255 0.0012371093 -0.002592597 0.0003409262 -0.0038429745 -0.0005661667 -0.0008615345 -0.00013551764 -0.004779175 0.000706189 0.0001342194 -0.0019713317 -0.0007345406 -0.0034858994 -0.0022969092 -0.00034161922 0.00031728917 -0.0028766969 0.0024333645 -0.0030050913 0.002636405 -0.0034249756 0.0020561584 -0.003478502 -8.208224e-05 0.0016960757 -0.0019716532 -0.0014918298 0.0019306754 -0.003642213 0.003189849 0.0014060437 -0.0011382491 0.0020316362 0.0023416448 0.0033769484 0.0025059166 0.0011085221 0.00547008 0.0034703235 -0.005259015 0.0012007976 -0.0009857544 0.0029647653 0.001079177 -0.003623981 -0.0027496999 -0.0014077678 -0.003480762 -0.00012589697 -0.0042432942 -0.0026056822 -0.00086622615 -0.001020859 -0.00010872501 0.0018772685 -0.0012288151 -0.0046136454 0.0020606758 0.0011347806 0.0002328508 -0.0021228215 0.001371915 -0.0026726166 0.0006162868 0.0029562404 0.004763308 -0.0014096271 -0.00027820774 0.0049823653 0.0033307308 0.0014226688 -0.0047022076 -0.0016713977 0.0029254495 -0.0005295391 -0.0017653742 7.857751e-05 -0.0021272535 -0.0006300901 -0.0009870718 -0.00034482934 -0.0024838145 -0.0038328331 -0.00379539 -0.0011110205
  0.0039665136 0.0015108626 -0.00095866784 0.0033163696 0.0026469668 0.003223585 -0.0034658944 -0.004241067 0.0031832333 0.0044183084 -0.0040525254 0.0016741762 -0.0032120836 -0.0035962341 0.004470491 -0.0020612816 0.00073057116 -0.0026789196 0.001728795 0.001773241 -0.0025274 0.0014677602 -0.0033503894 0.0030396797 0.0017183874 -0.0024558783 -0.004189237 -0.002128846 0.00023952131 -0.0019981174 0.0018284352 -0.00077281764 0.0036542304 0.0024037417 0.0014234547 0.0026046347 0.00058548024 0.0036340202 -0.005780216 0.0010708992 -0.0022297422 -0.003765368 0.0028689078 -0.0025417784 -0.0008746952 0.0012465592 -0.0037133787 -0.00010793514 0.0019499974 -0.004301007 -0.0034570072 -0.0018566211 0.0032491218 -0.0009799406 0.0018923185 0.0022984382 0.0013912024 -0.0004883323 0.003262744 0.0014455024 -0.0028515684 -0.002125116 0.0038754903 -0.0024669827 0.0005005247 0.003358969 4.202957e-08 -0.00086423696 0.0023077063 -0.002933999 0.0032718182 0.0011176865 -0.00071449915 -0.0034364727 0.0039649885 -0.001727294 0.0032166867 0.00061803206 0.0024864573 0.0015117549 0.003194458 -1.4396559e-05 -0.00486017 -0.0044918847 -0.0042896583 0.00386431 0.0022319483 0.0011093183 0.0020094132 0.002033305 -0.003932697 -0.004883472 -0.00019450634 -0.000642169 -0.001323532 -0.0030488179 0.0037012475 0.00019662084 -1.2443757e-05 -0.0038373445 -0.0015886523 -0.0012608811 0.003613442 -0.0036617883 0.0005138513 0.0017770939 -0.002052454 -0.0005258595 0.00070047297 -0.0009426159 0.0005941698 0.003225813 -0.0022333886 0.0024979033 -0.0016141773 -0.0030033002 -0.0028424824 -0.002277294 0.004023193 -0.001404506 1.5892369e-05 0.0031130062 0.0018348154 0.0029050515 -0.003876201 -0.0035096107 -0.0024179388 0.0016246194
[ 0.002792404 -0.00086301315 -0.0006998913 -0.0028195807 -0.0011950303 -0.0016693049 0.0010365335 -0.0040761065 0.0022835669 0.0026338054 -0.0011373463 -0.00097485154 -0.0022728886 0.0003583956 0.0046614795 0.0010011839 -0.0014320319 0.0038183571 -0.0016345812 -0.0039149267 0.0016794106 -0.0011431337 -0.000739551 -0.0017640907 -0.00092180516 0.004552297 -0.0027397734 -0.0003397535 0.0005160625 -0.0004384684 -0.003970475 -0.0035714903 0.00055962714 -0.00019433386 0.0033466034 0.0010022912 0.0012826963 0.0027657356 -0.0042693964 0.0022505985 -0.0027700544 -0.0016899081 -0.00049868686 -0.0023881055 -0.00039590432 -8.906035e-05 -0.0013381437 -0.0012920473 0.00095800956 -0.0043368437 -0.0014127116 0.004767522 -0.0007200746 0.0021989546 0.003881247 -0.0022550575 -0.0012479629 -0.00043648898 0.0015056102 0.002950216 0.0018918484 0.0017411915 0.0008431822 0.0034428185 -0.0010885913 0.003523336 0.002684405 0.0016115028 -0.00398204 -0.0029656342 0.002498762 0.0025986296 0.000106996056 0.0011527113 0.0026433114 -0.00033862863 0.00097362814 -0.0008982634 0.003940223 0.0032476932 -0.0020299838 0.004639012 -0.0007638623 -0.0041409475 -0.0023505117 -0.0026331714 0.0020630355 0.0006215403 0.00021157587 -0.000112833084 0.00276278 -0.0047233636 -0.002800551 0.002249768 -0.0034600878 0.0038368583 0.0015239286 -0.0011612967 0.0037365134 -0.003223468 -0.001626251 -0.0009721861 0.0021550779 0.0009087354 0.000393918 -0.00046974063 0.004495302 -0.0032622707 0.0035430065 -0.00041417681 -0.0005548932 -0.0009960899 0.0033670354 0.003885696 0.0010964748 0.0007289559 0.0036155093 0.0013873915 0.0008724143 0.0038121769 0.0007506837 -0.0012701225 0.0027491355 -0.0017794411 0.002332454 0.00023662776 -0.0010639033 -0.0028238082
] -0.00194964 -0.00027888315 0.0040107225 0.0018676908 -0.00079952885 -0.00071072165 0.00013116622 -0.0028071394 -0.0029688682 0.005223233 0.00040514587 0.0035214548 -0.0027314567 0.0031386465 0.0036662563 -0.0022254563 -0.004071076 0.0026137051 -0.0019716425 -0.0018975005 0.00012557792 0.001213289 -0.0021242788 -0.0035869556 -0.004099774 -0.00020875045 -0.0021466273 -0.0022367728 0.0027420043 -0.0044710613 -0.002528874 0.0019254803 -0.00033313286 -0.002633161 -0.003072694 0.0018351336 -0.0022233913 0.0016526906 -0.002421853 0.002534816 -0.0031817218 -0.0030275157 0.0022227191 0.0025798336 -0.0035486713 -0.0040277494 -0.002810586 -0.0024514257 0.0018879931 -0.0028084845 -0.002750332 -0.0014238209 -6.428432e-05 -0.0016655462 0.00278675 -0.0014226229 0.0024806594 -0.00021727447 -0.00083706394 0.003353487 -0.0033747733 -0.0012332768 0.00437073 0.00017054386 2.6472888e-05 0.0027378497 -0.002423109 -0.0006392106 0.0024280176 -0.00067679776 0.0008234474 -0.0010156617 -0.0024031166 0.0012471945 0.00049167546 -0.0032764093 -0.0029550253 -0.0018229269 -0.0029051646 0.004103322 0.0016926411 0.0028214287 -0.0019665002 -0.0048737163 0.0030757543 0.0011864122 0.0018480002 -0.0015318628 0.0020798647 -2.5750129e-05 -0.00259018 0.0006233862 -0.0030608093 -0.0020894061 -0.0047974335 0.004190992 -0.0015465914 -0.0026549506 -0.000957402 -0.0015324724 0.0025729653 0.0006752928 -0.0016107096 0.0020668695 -0.0012244617 -0.0040885387 0.0013439123 -0.0006290903 0.0039146696 0.003938677 -0.00380707 -0.001001531 -0.0014654819 -0.0017356867 -0.0040896023 -0.0004460448 -0.0016129698 0.003503325 0.0027115077 -0.0024981038 -0.0015961521 0.002398898 0.0020407964 0.0009995489 -0.0033422534 -0.004145434 -0.0018090627 -0.0025007227
4 -0.0027281968 0.0029258227 0.0031749045 0.00022816613 0.00270131 -0.0026926585 0.0005228922 0.00045419228 0.0025884393 0.0038242145 0.0008546853 0.0025639634 -0.0017410605 0.0028010148 0.004676844 -0.0019381632 -0.0028565165 -7.458039e-05 -0.0013323968 -0.0028830753 -0.0035442284 0.004255793 -0.0029705726 0.0014154266 -0.0020638988 0.0035680924 -0.0038508398 -0.0011999925 -0.002928528 -0.0007711784 -0.0014323841 0.00030895838 0.004108078 0.0017522239 -0.0016504028 0.004905485 0.0018966133 0.0023629407 -0.0052845594 0.0023582762 -0.0011344628 0.00313661 -0.0030910454 0.003436525 -0.0011917062 -0.0039242674 -0.0038013125 0.0036452042 -0.002528922 1.2652898e-05 -0.0014361584 0.0017828998 0.0025109337 -0.0017032982 -0.0033494025 0.0029238495 -0.0027238587 0.0011560696 0.0004853044 -0.0024812797 0.0010048577 -0.002686645 0.0050299643 -0.0010038479 -0.0015305519 -0.0011870868 0.00015396258 -0.0038112316 0.0007736622 -0.003751419 -0.003152546 -0.0015794274 -0.0027214508 -0.0008478422 0.0013637135 0.00051704305 -0.0026473652 -0.0012955283 0.003112248 -0.00057212403 0.0033234563 0.0022994643 -0.0049537253 -0.0033659702 -0.0029085784 0.0033012645 0.000870998 0.0030441533 -0.0016603216 -0.003162072 0.0017710672 -0.00012650239 0.00021216556 -0.0044624764 -0.001972148 -9.908283e-05 0.0016545905 -0.003046585 0.0020517502 0.00060813216 -0.003284729 0.0029605804 0.0039305403 -0.0029037 0.0036543726 -0.0035823137 0.003470605 -0.0034479084 0.0016882343 0.0033123589 0.0020595766 0.0030524984 -0.0026391405 0.0019404076 -0.0031763827 -0.0027027924 7.250966e-05 0.0015999186 0.00027691136 -0.0015556725 0.0023993747 0.0038174698 0.0028135183 0.0030228791 -0.0011111135 -0.004507098 -0.004033268 -0.002158602
1 0.0026469883 -0.0035911293 -0.002213003 -0.002150421 -0.0037230747 0.00019880506 -0.0029091039 0.0018203054 0.0014043378 -0.0026502975 0.0023945977 0.0012533151 -0.00022979348 0.0025272437 0.0049745594 0.0005998114 0.0024427078 0.0036730645 0.0043661916 0.00065895024 -0.00082038686 5.5364475e-05 -0.0021034286 -0.0021986822 0.0019579215 0.0009272678 -0.0031870261 -0.0009454096 -0.0005416981 -0.0016680248 -0.0028649773 0.0034415908 -0.0033629735 0.0006074303 0.00014309432 0.0043716826 0.003362551 -0.00028518136 -0.003967185 -0.0033156977 0.0035025012 -0.002069776 0.0042367573 -0.00064765604 -0.002125965 -0.004048436 0.0013145081 -0.0035098623 1.443288e-05 0.0022234842 -0.00025374215 0.001798688 0.0027968355 0.0018790304 0.00028426843 -0.0014380898 0.0010585549 0.00025603533 -0.0024517558 0.0033193452 -0.0017649056 -0.00038134045 0.0011668032 -0.0009230103 -0.0011111065 0.0010863544 -0.0025488017 0.0018075542 -0.0016208465 0.0018891431 -0.00206106 -0.003261503 -0.0016103279 0.0013816943 -0.0009659452 -0.0022743891 -0.0026975241 -0.0037458518 -0.00043531 -0.0025211363 0.0008428307 0.0011239735 -0.00067320204 -0.0038029598 -0.0042186263 -0.00084378687 -0.0005996073 0.0028678058 0.0019577085 -0.0035175201 0.0013801809 -0.004118373 -0.00013606732 0.0013406317 0.0017275335 0.0029650244 0.0029452206 0.0022230428 0.0010335208 0.0009160815 0.0017022942 0.0016908239 0.0018569683 -0.00367073 -0.0029113893 0.00015043687 -0.0010227975 0.00034329368 0.0025333976 0.00081548054 -0.0030109202 0.0024076744 0.001116521 -0.0010584574 -0.0030746977 -0.003841276 -0.0035515805 -0.00046203082 0.0027616774 0.00066219433 -0.00032882235 -0.00038118538 1.7145121e-05 -0.0032233146 -0.004010016 0.0021553133 -0.0037392327 0.0012644678
2 0.0010074765 -0.0038871625 -0.0021529472 0.0027302247 -0.0036035106 4.6569116e-05 -0.0010121692 -0.00420148 -0.0008514561 0.005011175 -0.003253005 0.00046924746 -0.0019945065 -0.003529655 0.0037816942 0.0030069088 -0.0034985002 0.0034061188 0.0022093991 0.00074217125 -0.0037076403 0.0019494077 -0.0015935799 -0.00040320182 -0.00097446964 0.0036254541 0.0015602051 -0.002220614 0.0026784476 -0.004173255 -0.0010200198 -0.0022228698 -0.0022076163 -0.0029043183 0.0012354092 0.0027466528 0.002446076 -0.00024688855 -0.0014604935 -0.0033508092 0.00076792826 -0.0039936556 -0.00052196416 -0.002219464 -0.0015578023 -0.00087025994 -0.00062676024 -0.0033551687 -0.000719978 0.003072893 -0.000508234 0.0038179758 -0.00014503767 0.0010178938 -0.0025365788 -0.0027760165 -0.0038452528 0.0018695765 -0.0012989538 0.003219281 0.0017905319 0.0005545753 0.004938037 0.0030057125 -0.0019685365 -0.0029896188 0.0002556253 0.0014831213 -0.0012538221 -0.0023924327 0.0007248795 0.0007283405 0.001109963 -0.00043946473 0.0019697167 -0.0008171515 -0.0015078961 0.0005238446 -0.0027576778 -0.0003106609 0.0022339693 -0.0025058058 -0.00402928 -0.0011043902 0.0008087311 0.0025697723 -0.0008449195 0.0028402766 0.001218382 0.0026134592 -0.001906003 -0.003740828 0.00014227716 -0.001875957 -0.0032782767 0.0021204473 -0.0013611744 0.0005764971 0.0039929096 5.069004e-05 0.0016841928 0.0037985768 0.0011968978 0.0020380358 0.0011284584 0.00072300085 -0.0018766577 0.0017957265 0.0034735454 -0.0024113166 0.0030382928 0.0006373271 -0.0019351374 -0.00035577538 -0.00042264725 -0.00058814837 0.0017349484 -0.0027822747 0.00025213673 0.0033217636 0.0039186864 -0.0035975792 0.0022677013 -0.0020238596 0.0006679366 0.00224989 -0.0046726265 -0.0027695927
7 0.00082667306 -0.0011116628 -0.0010112675 -0.003595323 9.553134e-05 0.0004268918 -0.0002725768 -0.004183732 -0.00056694925 0.003830226 -0.0030031875 -0.00061374804 0.00017300554 -0.0028282467 0.0049416875 0.003110728 -0.0018922077 -0.00064251653 0.00047413976 3.7843478e-05 0.0020961284 -0.00027008212 0.0023415934 0.00020429166 -0.0037530707 0.003796003 0.0015098683 -0.0038895083 -0.0032688994 0.0013847324 0.0013758079 0.0024536706 0.0021515344 0.003250702 0.002508084 -0.002414704 0.0020127161 3.7975315e-05 0.00093517004 -0.0025347718 -0.003133365 -0.003441183 -4.183336e-05 -0.000601091 -0.00034277703 0.00032286244 0.0021130478 -0.0008721657 0.00073736836 0.0023437222 -0.00344354 0.0043277764 0.0032160108 -0.002394309 -0.0028128484 0.003257258 -0.0030262778 -0.0012702636 -0.0013776999 -0.0019538878 -0.002235211 -0.0011881649 0.0007176396 5.8757196e-05 -0.0027201285 0.0011026958 0.00078723836 0.0026087048 0.0010656242 0.0010169975 -0.00084233005 0.0030797906 -0.0031697443 0.0025858292 -0.002285859 0.0011681833 -0.0008762406 0.002919244 -0.002841161 -0.0016675779 0.0020473818 0.0004673584 0.001954995 -0.0040335297 -0.003474656 0.0011981208 -0.00076689204 -0.00020328976 -0.0012059087 0.001674189 -0.0018356277 -0.0029995386 -0.0034887947 0.0024186007 -0.002143592 0.0023932618 0.0024451907 -0.0034365652 -0.00017815139 -0.0024273577 0.00053920445 0.001019944 0.0030987277 0.0033445738 -0.0005006792 -0.0015902448 -0.003209548 0.0023635821 0.0023933288 0.002451558 -0.0037186234 0.0044219047 0.0017596162 0.0036052684 0.00088566134 -0.0001389735 0.0028889216 -0.002830654 -0.0003229553 0.0011230531 0.0028696219 0.0011281975 0.0026148336 0.003088976 -0.0032247726 -3.1094653e-05 -0.00078931265 0.0026203243
8 0.0035998498 -0.0018657786 -0.00079847086 -0.001034979 0.002330966 0.002233603 0.0032994035 0.0013535343 0.0003767037 -0.0031361748 -0.002842233 -0.003189915 0.0029962512 -0.0035023962 0.003543394 0.0036407448 -0.0026769445 -0.0012150845 -0.0027444873 0.0016856821 -0.00071859243 0.0031497586 0.00032425165 0.0031145103 -0.0018663085 -0.002180093 0.0005675628 -0.0033535922 -0.002556777 -0.0020672001 -0.00043306238 0.00084529177 0.0021728664 -0.0025929946 0.0037232891 0.00077085965 -0.0014830496 -0.0034698148 -0.0024033661 -0.0016367086 -0.00042239527 -0.00029411892 0.0022255164 0.002128874 0.00041006575 -0.0026181745 -0.0015325818 0.0026271576 0.00208029 -0.0027904124 -0.0006888429 0.003415513 0.0026863676 0.002191042 0.003131914 -0.0007031763 -0.0031317093 -0.0013705128 0.0028981892 -0.0037761242 -0.0032756634 0.00018411413 -0.0030462667 -0.0007289889 -0.0005590419 -0.0019918976 0.00066176435 0.002626928 -0.0011128146 -0.0015738739 0.0016956732 0.0023684413 4.526278e-05 3.695336e-05 0.0015749305 -0.0029971637 0.0022499757 0.001605393 0.0031409585 -0.001066477 0.002576127 0.00151983 0.0022078494 0.0029700182 -0.00062810746 -0.0031631447 0.0020005098 -0.0011713343 0.0012120531 -0.0016228422 -0.00096694 -0.0025064335 0.0028129157 -0.0028586583 -0.0025011823 -0.0030510924 0.00019678575 -0.0037017216 0.0032539812 -0.0027873197 0.001896213 -0.0032644179 -0.0003816832 -0.00073581474 -0.0016746825 0.0020508284 -0.0034560035 -0.0022329183 -0.0017656013 0.0019326688 -0.00023543435 -0.0011391405 0.0018091578 0.0017891809 0.000115845236 -0.0012586884 -0.0018544839 0.00034406653 -0.00068206975 0.0028022109 0.0008949543 0.00083305535 0.0014145866 -0.001622409 0.0013225576 0.0030036094 0.0010090136 -0.003844156
0 -0.00013358382 0.0005906297 -0.00041311065 0.0028025843 -0.0009916957 -0.0024252222 0.0011177161 -0.001360149 0.0011315923 0.0042794705 -0.0019534125 -0.0035566904 -0.0015933402 -0.0024295782 -0.0022716275 0.0013317784 0.0027363459 0.0031277877 0.0021888337 -0.0014867927 -0.003329506 0.003308136 -0.0026507936 0.0021284109 -0.001875892 0.0007487598 -0.00044809023 -0.0012308119 -0.0023382178 -0.0031036967 -0.0018925613 -8.45427e-05 0.0036745397 -0.0034713445 -0.000895061 0.0031723669 0.002963649 0.0033429223 -0.00444756 -0.0020582005 0.001627744 0.00055462914 0.004329677 0.0016519421 -0.0013206633 -0.0038893078 0.0032365343 6.668853e-05 -0.0022259199 -0.003463041 -0.0033237522 0.00017982649 -0.0021626514 -0.0019902617 -0.00019925437 -0.0036641196 0.0008903389 -0.0021479968 -0.0017818328 0.0012610592 -0.001726174 0.002918607 0.00091966253 0.0036500972 -0.00074744393 -0.0010721172 0.003261904 0.0006103437 0.0016670645 0.0017947606 -0.0033310147 -0.0008893394 0.00025225032 0.003302129 0.0016152862 0.0012779818 -0.00073824683 0.002949993 -0.0031476119 -0.0025825321 0.0037878428 0.004086852 -0.0033850917 0.0023157373 -0.0016254913 0.0012131174 -0.00037282886 0.0014536388 -0.00024623098 -0.0021262371 0.0004904706 0.0029565431 0.0011194523 -0.001958297 0.00050079805 -0.001388511 0.0018251688 -0.0019990897 -0.0033923325 -0.0028875002 0.0016458146 0.0020754433 -0.0004446872 0.00084637245 0.00032840564 -0.0039664153 0.0024558716 0.0019646576 0.002849069 0.0040896786 -0.0011226346 -0.0019906797 0.0008565954 0.0040838183 -0.0013691525 0.002002775 0.0017109554 -0.0028639406 0.004182211 -0.0017263349 0.002817468 0.003172479 0.0039454135 -0.00039985677 0.0017383507 -0.000547915 0.0018988888 0.0033466022
6 -0.00023841443 0.0020294038 -0.003506604 -0.0017230187 0.0035616097 0.002561009 -0.0033229603 -0.0031275048 -0.0034247376 0.0005760599 -0.0017339499 0.0023432614 -0.00033997788 0.0010568185 0.00073703774 0.0036827875 0.00056928844 0.001155173 0.0008994911 -0.00075614057 0.000774373 0.0021763346 0.00040722865 0.0032180392 -0.0025471547 0.0023265462 0.0028427197 0.00029450213 -0.0017909781 -0.000930981 -0.0039274073 0.0024328292 -0.0034818256 -0.002067198 -0.0015955081 0.0021087937 -0.0005409381 0.003288185 -0.0027757129 -0.00015052198 0.0012101282 -0.0018482821 -0.0016175755 -0.002995413 0.0024652306 0.0034800118 -0.0018053749 0.0021439805 0.0037728646 -0.0038582832 -0.0014234103 0.00033902243 -0.0009967944 -0.0006969122 0.00023529564 -0.0038172542 -0.0016268215 -0.001561877 -0.0027623556 0.0025387744 0.00042266975 0.0032462915 0.0040353048 -0.00047910836 -0.0007008209 0.003114896 0.0011098144 0.0023987507 -0.0016484739 0.0013802915 0.00059936213 -0.0018095347 0.0013994818 0.003380865 -0.002002592 0.003083511 0.0013177566 0.00040309387 0.0022624002 0.0017197104 0.0011308785 0.0018299882 -0.0037482288 0.0010090211 -0.0033193254 -0.0006402269 0.00261282 -0.0019793622 0.0038160488 0.0016307706 0.0007796106 0.000549415 0.00038914426 -0.0010562912 -0.0013280686 0.00317159 0.0020165998 -0.000693625 0.0022756783 0.00044255654 0.0021304046 0.0009522327 -0.002986214 0.0009960618 0.0013122851 0.0021238984 0.0036456194 0.003686074 -0.000192888 -0.0015367164 -0.0021071997 0.0028562024 -0.000572341 -0.0032951059 0.00082220335 -0.001780257 -0.001886134 -0.0026401572 -0.002847333 -0.0012078432 -0.0032519097 0.0009887853 0.0035572434 0.0002523849 -0.0040593357 0.00045974425 0.0020973452 0.0010138619
9 0.002370239 0.00064211764 0.0026105405 -0.000104750216 -0.0010824157 -0.00024599166 -0.0025959495 -0.0037024748 0.003924752 0.0007946137 -0.0032971713 0.003930436 -0.0032262949 -0.0009374894 0.0020531663 0.0013068845 -0.0005586195 -0.001426807 0.002356679 -0.0005548324 -0.0034792658 -0.0005064574 -0.00085057574 0.00036987814 -0.0036847305 -0.0023969165 -0.00041971912 -0.0038922601 0.0035014104 0.0033567587 -0.00020918573 0.0016514873 0.00350535 0.00020014367 0.0021796685 -0.00014028346 0.0031245076 0.000102455364 -0.0017438999 0.00037030317 -0.0011500875 0.00036830947 0.0038308795 -0.0027515185 0.0021087022 0.0022612652 -0.0030697067 0.0016089465 -0.0012829781 -0.00054260954 0.00039893272 0.0035224287 -0.002018938 -0.0029829845 -0.0009151902 -0.0038736654 -0.002621495 -0.0034285714 -0.0011307005 -0.001031092 -0.0025466927 -0.0036959013 0.0042595263 -0.003215789 -0.0034568256 0.0010632476 -0.0014288375 0.0019810372 0.0025413195 -0.0033644529 0.00056116 -0.0035065457 0.003304891 0.0027738072 0.0012545041 -0.0030962403 -0.0013939604 0.0026445037 -0.0034415808 -0.0006256053 0.0041036448 0.0024803767 -0.0017152415 0.00021798137 0.002959299 0.0014740095 0.0028476499 -0.0021567047 -0.0028482368 -0.0021757053 0.0028606958 -0.003930731 -5.639068e-05 -0.003709166 0.0027641435 0.0020203283 0.00058117835 -0.0039854636 -0.0021749567 -0.0003060656 0.0036217868 0.0011333704 0.0010038054 0.0013075245 -0.0028725832 -0.0037085712 0.003825463 0.0032422985 0.0016554671 0.0037874626 0.0039330344 0.0026657472 -0.0034873127 -0.0015065825 0.0031772794 -0.0022542477 0.0023613856 0.002987625 0.0010429063 0.0035343606 0.0017863279 -0.0032303943 -0.0029500113 0.001275662 -0.0007366404 -0.0028390414 0.0020039463 -0.0006357083
5 0.0027167322 0.0006238962 -2.8578988e-05 0.0008757149 -0.0019804551 -0.00064397877 -0.0011758871 0.0010684676 0.0003208838 0.0013477536 -0.0009589539 0.002517331 -0.0024263165 -0.0021382293 -0.0025202497 -0.0013516332 -0.0035455676 0.0036148222 0.0021709262 -0.0031961903 0.00046333976 0.0031255311 -0.0036825987 0.0031703005 -0.0017453529 0.0003488038 -0.0025607925 -0.003463677 -4.0150708e-06 -0.00030934362 0.0015117379 0.0022824903 0.0034350583 0.0023915456 0.002511497 -0.0025497864 0.0013489074 -0.00088135997 0.00038240186 0.003287182 -0.0016582649 -0.0026149505 0.004064591 -0.0026367991 -0.0014063115 0.0009311283 -0.00260439 0.003281536 0.003886748 -0.0018848337 -0.00094463694 -0.0017974526 -0.0031949114 0.0018545146 -0.0012624396 -0.0021128894 -0.0025593813 0.003545678 -0.0017846257 0.00082405505 -0.0033758515 0.0010636058 0.004358021 -0.0024099036 0.00094024104 -0.0032429178 0.000105326595 -0.002885063 -0.0035497793 -2.4174786e-05 -0.0005648546 0.0033994855 -0.0032647317 0.001062617 -0.0030110776 0.0026885157 -0.0013752035 -0.0006620835 0.0039762915 0.00066317024 -0.0019575423 0.0028150387 0.0028027897 -0.0012461626 0.0011737479 0.0009794 0.0037935558 0.0002843713 -0.0030762015 -0.0019202379 -5.2187643e-05 -0.001366419 0.003243124 -0.00067941786 0.0014577105 -0.0028812974 0.0028831258 -0.0009609644 0.0007769457 -0.0014159029 -0.0017409573 0.003125841 0.0025126436 0.0027588431 -0.0037960098 -0.0015733769 0.0012369547 0.0036071758 0.0013245067 -0.003597404 -0.00226966 -0.003529108 0.0032593273 -0.0007954959 0.0031851204 -0.001189965 -0.00084674545 -0.0023458474 0.0013172724 -0.0034536421 -0.0018746787 0.0015475693 -6.732377e-05 -0.00036040836 -0.0011974798 0.002082842 0.00093933695 0.0010386172
