14 128
3 -0.0030796204 -0.002270493 -0.0043807533 -0.0014682258 -0.0015265716 0.0033284568 -0.003212197 -0.0032277028 0.001544585 -0.0014773065 0.0010090023 -0.00027466746 0.0037060608 0.00014831967 -0.0023828095 0.0020185374 -0.0026379102 0.0031817039 0.00014485273 -1.5435799e-06 -0.003528904 -0.0004120778 -0.0032074342 0.00097394746 -0.0038347198 0.00017001014 0.0003784889 0.0035468987 -0.00074909354 0.00055527344 0.0011800752 -0.0041118693 0.0031544678 -0.0023308573 0.0007118117 4.0119456e-05 0.0009122173 -0.001395311 0.0036625457 0.0039195525 -0.0011553322 -0.00031612866 0.0011669438 -0.0008012715 0.0016304079 -0.0010523921 -0.0018663439 0.0009915219 -0.0014617357 0.002904857 -0.0008340063 0.0017209941 -0.00088916643 0.00039164367 -0.00018552622 0.0045229513 0.0039480818 -0.0015213202 -0.004175319 -0.002233594 0.00032876307 0.0031764808 -0.002396798 0.0030985407 0.0038181357 -0.0031365461 -0.0013243852 0.0021973567 -0.0010109022 -0.0037577064 -0.0035655797 -0.0041611465 -8.0750564e-05 -0.001791915 -0.003570396 0.0015501473 -0.00064189936 0.0021291834 -0.0036874001 0.0027548242 -0.00075268646 -0.0045171 -0.0002642763 -0.004059321 -0.0018367585 0.002368289 -0.0032162305 0.00105258 -0.00326413 0.0010588896 0.002436848 4.234955e-05 -0.0013481773 0.0024764847 5.5400225e-05 0.0005869473 0.00076160266 -0.0015073358 0.0011156024 0.004181336 -0.0024213986 0.0005247768 0.0023349181 0.0036926444 -0.0014145006 -0.0017584714 -0.003275308 -0.002755846 0.00033355382 -0.0015737722 -0.000121551595 0.0016064891 0.0026044175 0.0019132448 -0.0013680004 0.00081190246 -0.0016834119 0.002908375 -0.0010469963 -0.0029251452 0.0028368062 -0.0013846926 0.004044676 0.0001321122 -0.0024142526 -0.0011581033 0.0040476737 0.0044257776
, 0.0030475908 -0.00024291029 -0.004700817 0.0024554972 0.0007708778 -0.0026710255 -0.0026365183 -0.0033424231 0.0040349215 -4.7771955e-05 3.308468e-05 -0.0044278046 -2.7067608e-06 0.0038719394 0.0037521133 -0.002517604 -0.0036016451 0.003889992 0.0036545084 0.00013516108 0.0034144756 -0.0025967758 -0.004815348 0.0044211964 -0.0021398845 -0.0036087742 0.0031220925 -0.0005370467 -0.00045793585 -0.0010936264 0.0009109613 -0.0011454241 0.0009618275 -0.0012229304 -0.001598439 -1.7404522e-05 -0.0038606962 -0.0016966629 -0.0035074365 0.0020091627 -0.0028283126 0.0030696525 -0.00016165778 0.0013309845 -0.001557561 0.0012062206 -0.0023757727 0.0029327641 -0.00420079 0.0042166854 -0.004668427 -0.0013365273 0.0020073487 -0.0018151687 0.0015636461 0.005313502 -0.0023070523 -0.0017131778 -0.0029814227 0.0015607775 -0.003028524 -0.0031629428 -0.0019686124 0.0016267379 0.00349536 -0.003819211 -0.0011259802 -0.0012152615 0.00235643 -0.003791254 0.0014388327 -0.0015329188 0.0020864224 -0.0032600097 0.0034865155 -0.0010292521 0.0015782504 0.00418883 0.0021519829 0.0040587806 0.0042034625 -0.004383275 -0.0015565961 -0.0044238246 -6.632501e-05 -0.0014767472 -0.00027132363 -0.00136442 -0.0020975608 0.0038308548 -0.0035742733 -5.757731e-05 0.0018883622 0.0011121373 0.00067493686 0.00056003634 0.00096702354 -0.0026804956 0.0041546053 0.0036649862 -0.00072798925 0.0015348434 0.004748017 0.0030203683 -0.00047843414 -0.0011478572 -0.00037909189 0.0011593362 -0.004657518 0.0034185122 -0.0037695086 -0.00031403988 -0.00029375832 -0.0018242508 0.0019577194 0.0038954038 0.0014522306 -0.0031241144 -0.00022844315 0.0010983398 0.0030807243 0.002739744 0.0018371079 0.0035537372 0.003002272 -0.002563131 0.004396642 0.0042647715
  -0.003957467 0.00080202793 -0.0058584465 0.0034755578 0.0022058743 0.001977493 -0.0030430153 0.0029050433 0.0016165205 0.0035893102 0.003017267 -0.0014333335 0.00079615525 -0.0015023653 -0.0016478979 0.004259532 -0.0013522779 -0.002432167 0.004350566 -0.0012407477 0.0022624321 0.004044658 -0.004660365 0.0040426017 0.00063046115 0.003905465 0.0055629946 -0.0012770072 -0.0019851066 -0.004282728 0.002956098 -0.00080005906 0.0016560195 0.0022496774 0.0034773224 0.00042422191 -0.004250165 0.0029859703 -0.00033279302 0.0037409973 -0.004061248 0.0029607203 0.0039683348 -0.0017654967 -0.0016271966 0.0023081282 0.0009544375 0.002818272 -0.0011051104 0.0048694625 -0.0018119359 -0.0038928417 -0.0043155025 0.005385219 -0.002957221 0.0054437146 0.00064198865 -0.0043252753 -0.0006650056 0.004138005 0.0019227194 -0.0011169913 -0.0042194077 0.0009372345 0.0029647187 0.0022385542 0.0028544138 -0.0023216712 -0.00065342174 -0.0033909546 -0.0018304442 7.796673e-05 -0.00021407341 -0.0005914605 0.002831528 0.0009898734 0.00113828 0.0048156055 -0.003809909 0.0012408788 0.0032680593 0.001130122 -0.0034240992 -0.00035297428 0.00094416854 -0.0015290314 -0.0027891658 -0.0033223229 0.0025595156 -0.00066638016 0.0014021705 0.0025656724 -0.00087558426 -0.0036826325 -0.0020639547 0.0019466184 -0.0026586163 -0.0034271574 0.0022204982 0.004918264 -0.00064887333 0.0038106828 0.003044506 -0.0021086573 0.0029275953 0.0036175186 -0.0010941603 0.0022211017 -0.0049339402 -0.0024001822 -0.0027480114 -0.0017325395 0.0018274386 0.0025653976 -0.002466772 0.0029587331 0.0008315659 -0.0024737394 0.0021641823 0.004129371 -0.0033284193 -0.00020749925 0.004539414 -0.0012330672 -0.00026497783 -0.0037493343 0.0019890992 0.0023737794
[ -0.00084395934 0.0040062508 -0.0021468492 -0.003531272 -0.0029387346 -0.0015861946 -0.004548805 -0.00035815174 -0.0014084997 0.0008795012 -0.0019519323 -0.002606423 -0.0018260076 0.003284041 0.0038936706 0.00086519035 -0.00012253308 -0.0032253985 3.0924453e-05 -0.0030234968 0.0012637321 0.0033120431 -0.0026809329 0.0012549016 -0.001256841 0.0009535096 0.0037548735 0.0011681698 -0.0004182102 -0.0044610924 0.0040650307 -0.0028394607 -0.0026344869 -0.0019260604 -0.000690972 -0.003058442 0.0010966203 0.0007713703 -0.0014477709 0.0007812229 -0.00029673864 -0.0018191191 0.00096696935 -0.0019068691 0.002924294 0.0033519908 0.0039598807 0.004103141 -0.00057151396 -0.0019070907 -0.0033594063 4.1878568e-05 -0.002718634 0.0031733194 0.004011287 0.00087045267 5.219076e-05 -0.0006353714 0.00031451805 0.0040373513 0.0009264743 0.0036150964 -0.0016323677 -0.000280907 -0.000996388 -0.001079458 0.0027150097 0.00068157626 0.0010072391 -0.0021543775 -0.0032459835 -0.0036172515 0.0025943322 -0.0013963018 -0.002649095 0.0007415052 -0.0026963193 0.0034407533 0.0035403005 0.003284917 -0.00026589507 -0.0005769315 -0.0004453576 -0.0035593493 0.003891572 0.0004325933 0.00022864321 -0.00083324016 -0.0019876242 0.0024142845 -0.0011743593 -0.000311655 0.0022305315 0.0031034697 -0.000454919 -0.0010730843 0.0003604122 -0.0031993457 9.211129e-05 0.00034049698 0.0036629827 -0.0026889415 0.0022752672 -0.0026114602 0.0004624279 0.00057918305 0.000827848 0.0035803984 -0.0005413246 0.0024457742 -0.0038441906 0.0035891754 0.004348582 -0.0011466518 0.0008529936 4.6966954e-05 -0.002111207 0.0021189915 -0.0017333511 0.0010958766 0.001884208 0.0010327409 0.0018279881 -0.00043058564 -0.00034628445 -0.0044841436 -0.00094044313 0.0010685956
] -0.004301352 -0.0009893226 -0.00420467 -0.003164717 0.0011597216 0.0019577732 -0.0030948138 -0.003899246 0.0037529333 0.0015611013 -0.0033970021 0.00065983215 -0.0032943701 0.0010493562 0.0031807506 -0.002699161 -0.00035460675 -0.0017000133 0.0040069977 0.00059713615 0.0012681717 0.0011593179 -0.0022502379 0.0004741125 0.0017258311 0.0019807857 -0.00096666074 -0.0004777088 0.0025072608 -0.0010952262 -0.0018712201 0.0019049818 0.0025924537 0.0014722529 -0.0020925445 -0.00078938407 -0.003556843 0.0011918342 0.0034373815 0.0019600003 -0.0037150935 -0.0033487552 0.0010525256 0.0032167423 -0.0023675663 0.0019484533 0.002581586 -0.002846647 0.0004527527 0.0023890564 0.00074196444 -0.0004445534 -0.0035753427 0.0027312383 -0.0023688872 0.0018888335 0.00020296514 -0.0019405106 0.0018245857 -0.00043615798 0.0030580678 -0.0034501748 0.00050795294 0.0007134671 0.004165257 -0.0009625841 0.0019313317 -0.000120722514 0.0025961506 -0.0031542708 0.0017369436 0.0017849373 0.0036434256 0.0023964774 -0.003458184 -0.0005318434 -0.0026679896 0.0024095415 0.0009311152 0.0007252573 -0.0021053061 0.0010611502 -0.0013034985 0.003242903 -0.0039465204 0.0030686348 -0.0009022735 -0.0012688453 0.003054755 0.0007902729 0.00036455222 0.0028163895 0.0030998362 -0.0013738642 -0.0013247326 -0.0024909338 0.00074570935 0.00092947733 0.002882406 -0.002626145 -0.0035656455 -0.00014854474 0.0029584211 0.0023842775 -0.0031024262 -0.0021552867 0.0033359746 -0.0023350685 0.003048015 -0.0028227163 0.0010729454 -0.0033431351 -0.001310528 0.0020680765 -0.003652021 -0.0023770535 0.00037631477 -0.0013407886 0.0008780452 0.0039284583 -5.2284387e-05 -0.00050898315 0.0042300173 0.0037583055 0.0025183754 0.00044462923 0.0005156489 0.0037129833
4 -0.002331842 0.0030413733 0.001673879 0.0013712546 -0.0030588903 -0.0023225993 -0.0034530563 0.0019309359 0.0023273702 -0.0018853354 -0.0016131646 0.0021633052 -2.3055329e-05 0.0022333947 0.0025401518 0.0029476918 -0.0008047124 -0.0032888376 -0.0029300791 -0.0025760615 -0.0016473621 -0.00016372491 0.0018191957 -0.0006339892 -4.0737712e-05 -0.00025518675 0.004359765 0.0008672184 -0.001819441 -0.0024361007 -0.0021117653 0.0016207618 -0.0019727296 0.002985873 0.00022138236 -0.0013506936 -0.00033824932 -0.0007665683 0.0035244543 0.0017385089 -0.0036122454 -0.0029963467 0.00017700813 0.0035445623 0.0036965967 0.002152249 -0.0038168037 -0.0007340836 -0.0035231356 0.0015268995 -0.004212899 -2.5080677e-05 -0.0012995227 0.003203693 -0.00073525275 0.0027198438 0.0015259518 0.0022335802 0.00043275213 0.003225319 0.0027845798 0.0012793423 -0.0044033653 0.0030617204 -0.002128836 0.0004185053 0.0036790427 0.00070257444 -0.0013695491 0.0008290847 -0.0035782792 -0.0010577018 -0.00030555512 0.0021766894 -0.00046313493 -0.003157587 0.0007564776 0.0015242053 -0.002963064 0.00087416044 -0.00014750168 -0.003817675 -0.0021074745 -0.003921958 -2.606796e-05 3.459415e-05 -0.0033056792 -0.0034031284 0.0008131421 0.0017065667 -0.0030571928 -0.00090203417 0.0020996304 -0.0035583288 0.0018536632 0.0018603473 0.0032148606 0.0005260192 -0.0012821645 0.0011228055 0.00363306 -0.0009114192 -0.0011533254 0.0019524462 -0.0002504126 -8.873949e-07 -0.0017696164 0.003528314 -0.0011503049 -0.0023064883 -0.0018974412 0.0016449194 0.0025154883 0.003375094 0.0026007723 -0.0031901665 0.0017873505 0.0029010763 0.0015415306 0.0032665418 -0.00010744538 -0.0035954786 0.0015043459 0.0025840902 -0.0034069004 -0.00038945972 -0.0027506892 -0.0018764152
1 -0.0020090505 0.0014407062 -0.003994821 0.002644555 0.0020487788 -0.0011171877 -0.001665865 -0.00058385456 0.0036878712 0.0032943576 0.0020770868 -0.003933536 -0.0022730518 0.0025413318 -0.0027119534 -0.0019601278 -0.004161921 -0.0010931647 -0.0031124402 0.0016455766 4.9422124e-05 -0.0014372921 -0.003119805 -0.0030005737 -0.0019109263 0.003698881 0.0029016652 0.0042171595 -0.0031559083 -0.003903918 0.00061718415 0.0007340266 0.0038630732 0.003473068 0.0029853792 0.0030672282 -0.0039555393 0.0015531246 -0.0019630725 0.0019543692 0.0031010874 0.0014846766 0.00046715923 0.0033331674 0.0009025508 0.0008454491 -0.00038821204 0.0044565685 -0.0016024525 0.0042816564 0.0019572398 -0.0004317675 0.0014791167 0.0022582656 0.0037534654 0.0037456595 0.0002876809 -0.00011389894 -0.0016515136 0.0028191505 0.004267425 0.0038311807 -0.0019656355 -0.0029931609 -0.0009650071 0.0010344428 0.00010895495 -0.0021097036 0.0028986589 -0.0015324572 -0.001875124 0.002463815 0.0032602844 0.0030540484 -0.003084545 -0.0005705447 9.031165e-05 0.0005015667 -0.00069171883 -0.0025577482 0.0010910536 -0.0027870636 0.00061656715 -0.00207601 0.0032333143 0.002482933 -0.00032873917 0.00026479052 -0.0014221811 0.0017266928 0.0031594061 -0.0026650727 -0.0019340154 0.00017224823 -0.0010903119 0.0020977648 0.00042637595 -0.00029404278 -0.00060430105 0.0026483217 0.002255899 0.001807394 0.0031681738 0.0037676995 -0.0013350259 -0.0018646978 -0.002894779 0.0009726305 -0.0021410366 0.0014498367 0.0008123012 -0.0023942722 0.00020796355 -0.0017149192 -0.0016502208 0.0008975212 0.003258028 1.7343664e-05 0.0005526341 -0.0008622436 -0.0037787745 0.0021656349 -0.0025516707 0.0030700455 -0.0030596429 -0.0011149347 0.00056338805 0.0017095786
2 0.0011140793 0.0020990057 0.0010807186 -0.0031952744 -0.00013117943 -0.00040158653 -0.003972162 0.001552015 0.0021087292 0.0017461113 0.0026514085 0.0013143227 -0.00038331095 -0.0012217981 -0.0031661608 0.0018087644 0.003592018 0.0021261985 0.0029990016 -0.0028054726 0.0030591267 0.00330057 -0.0035881645 0.0036799582 -0.0009896117 -0.0034285805 -0.0017243682 -0.0011015111 0.0028004944 -0.001821559 -0.0020544373 -0.0015643289 -0.0023685696 -0.0033753854 -0.0028374991 -0.003201704 0.0017727863 -0.00064997945 -0.0019582785 0.0037192726 0.001344967 0.00046931749 0.0039022416 -0.0022360422 -0.0037256568 -0.0015992193 0.0038564177 0.0030083507 0.00025388342 0.0026490383 -0.000166082 0.0032510043 -0.00013130778 0.00053207105 0.0001876822 -0.00052828545 -0.00045017392 -0.0014978992 -0.0029030633 -0.0009983163 0.0038800722 0.00073978165 -0.0032829116 0.0028339205 0.002296697 0.0037485517 -0.0009514239 -0.0010539424 -0.0012792535 -0.0044740275 -0.0039901026 0.002447336 -0.0035500913 0.0036284805 0.0025433982 0.0021294425 0.0039467444 0.0015322214 -0.0018784214 -0.003501456 0.0017065416 0.001610085 -0.0018806158 0.0035140794 0.000785821 -0.0013263867 -0.002011167 0.0006386698 0.00061278127 -0.002181312 0.0033198474 5.2381183e-05 -0.0025944375 -0.0032511177 0.0005260542 0.0034639642 -0.0028978714 -0.0025666906 0.004081473 -0.0028447455 0.0023345067 -0.000893865 0.004235185 0.0033685532 0.0016798312 0.0022142048 0.0016511108 0.0035880103 -0.003490663 -0.0016513615 -0.0008341065 0.0022144427 -0.0014415259 -0.0008249277 -0.0028623983 -0.00020960176 0.0038058152 0.0018741747 0.0022282274 -0.0015761808 -0.0030893213 0.000805419 0.00014858693 0.00329203 0.0013713475 -0.0013327955 0.0025799482 0.0012488982
7 0.000586371 0.001703554 -0.00038782042 -0.0032182508 0.0030224724 0.0012843285 0.00025474592 -0.002941317 0.003058518 0.0038215404 -0.0027783015 0.0028369513 0.002639241 0.0009682864 0.0035202058 0.0026288594 0.0020001777 0.0018134393 0.003206443 -0.00013100026 -0.0010712256 0.000521999 0.0004583196 -0.0028757204 -0.0013043238 0.0009687258 0.0004408336 0.0026384974 0.0003015229 0.0019117361 0.0033738317 8.558189e-05 0.0005919581 0.00074460555 0.0028480135 -0.0024030928 -0.0016845845 0.0008782384 -0.0023214195 0.0035527286 -2.771608e-05 0.0008726002 0.003758349 0.0038447862 -0.00035826577 -0.0034909158 -0.0017607685 0.0028456214 -0.0019432481 4.299635e-05 -0.0012787337 6.860938e-05 -0.00025588358 0.00094324595 0.0028171407 -0.0019194658 -0.0013350789 0.002272038 0.0035674628 0.0038552352 0.00293808 -0.0031121285 -0.0015438162 0.0037958783 0.0008634287 0.0031066719 0.0038342276 -0.0038554242 -0.0036647674 -0.001009819 0.0030370173 -0.0027233395 -0.000993749 -0.0027663095 0.0028415408 0.0036463446 0.0016534517 -0.003299829 0.0003392298 -0.0027393166 0.0011195746 -0.0037836074 -0.00018972359 0.0020828084 0.0013914537 0.00065678736 -0.0039963047 -0.003936041 -0.003206864 -0.0033948377 0.0017866514 0.0016583337 -0.0038078497 -7.244298e-06 -0.0019171907 0.003945584 -0.002973631 -0.0025866574 -0.0036968647 0.0022718231 -0.002457849 -0.0022764252 -0.0026467582 0.001836741 0.0035461728 0.0028150417 -0.0022499943 0.0017947621 0.0035330027 0.0012746231 -0.0016667771 -0.0021754073 0.0015175495 0.0032863368 0.002365601 -0.0003224917 -0.0026788993 -0.0028251708 0.0038135895 -0.0015310448 0.0020411261 -0.0020172787 0.0032521733 -0.0025012111 0.0010638798 -0.0034464137 0.0011486764 0.0031078663
8 -0.000100480465 0.00265452 0.0010814061 0.001383302 0.00063141214 -0.0010928524 0.0011991702 -0.0036449437 0.0037193354 -0.0013727578 0.0033382364 -0.00023402376 0.0019476296 -0.0025574092 0.0022647912 0.0037628552 0.000842761 0.0022866002 0.00023177963 0.003620811 -0.00060565036 0.003555772 -0.0012628109 0.0037040268 -0.0024914173 -0.0036543577 0.0012042689 0.0025742266 0.0015644701 -0.0019025458 -3.062709e-05 -0.0010708456 0.00027342208 0.0034581337 0.0033358561 -0.0029081458 0.0024447103 -0.0032211673 -0.0038557216 0.0029813508 -0.0037959921 -0.0031177285 0.0037838942 0.003173276 0.0022649139 0.001704732 0.0008956788 0.0004937686 -0.0024124337 -0.0026934315 -0.0033717332 -0.0015885555 0.0026660606 0.0038326946 -1.5755339e-05 -0.0031230464 0.00027846216 -0.0023572303 0.0028757176 -0.0022273741 0.0013316519 0.0018912769 -0.0014900168 -0.0030636862 0.00041092647 0.0019697223 -0.0011689721 -0.0001099597 -0.000685332 -0.0038996679 0.0012999738 -0.0010865632 0.0013095564 0.001944579 -0.00188114 -0.0033865198 -0.0024676735 0.004296939 0.001956583 0.0001522468 0.00018776869 -0.00392403 0.0007970031 0.0035950767 -0.00015257331 0.0038278936 0.0006629918 0.0013450597 -0.0036959196 0.00203848 0.0019254718 -0.000865384 -0.0028215924 0.0026405184 -0.00017526951 -0.0018621851 0.0005465314 -0.0002780451 0.003922596 -0.00077011785 0.00086903776 -0.00031848167 0.00048916356 -0.00028186291 0.0034148763 -0.0029254502 0.0007249295 0.0037760907 -0.0037595278 0.0010210075 -0.0033843918 -0.0035776012 0.003391668 0.0015030401 0.003073031 0.0015199283 0.0022999058 -0.0010677986 -0.00013678048 -0.0033385116 -0.002860597 0.0029115018 -0.00064812077 -0.002165891 -0.0013859536 0.002440082 -0.002574976 0.0006060429
0 0.0032935303 -0.0007596518 0.0022698527 -0.00064757926 -0.0028792128 -0.0012323903 0.00028160837 -0.0022150173 -0.0015432225 0.0018830581 0.0034960657 0.0019369001 0.0032259198 -0.0035615263 0.0036869047 0.003514704 0.0034844186 0.0005508992 -0.00041229988 0.0016389333 0.0030108145 0.00315106 -0.00044622872 0.0007913049 -0.003716183 -0.00070039585 0.0039712135 0.0028917617 -0.0032234334 0.0031391054 0.0005188717 0.00080802414 -0.0006604205 0.0016582458 0.0020930415 -0.00064165605 -0.00334788 0.0015216869 0.0037922107 0.0031162896 -0.0025864372 -0.00063927023 0.0026978164 0.0026611863 -0.0037670864 0.0007450776 0.0015905945 0.0033874668 0.0023927449 0.0017699399 0.0022200046 -0.0023325987 -0.0032469907 0.003958076 -0.0027551604 -0.00018815686 -0.0014360532 -0.00039890045 0.00017156226 -0.00065042626 -0.0013357602 0.0021388691 -0.0017014559 -0.003187725 0.0016825825 0.0013314134 -0.0019726157 -0.0026860428 0.00085149496 0.0008674546 0.0032593159 0.0028705187 0.00097107625 -0.002310952 -0.0014886463 0.0019837415 0.0024120845 -0.0018433644 0.0026178574 -0.0017441614 -2.8574219e-05 -0.0006102659 0.0022360373 0.0026867057 -0.0021475204 -0.0022768877 0.00040160023 0.00016203117 -0.0029786604 0.0039789546 -0.0023959796 0.0036830488 0.0019765547 0.0033996105 -0.00044093543 -0.0033596386 0.002160533 -0.003490806 -0.0018187196 -0.00023025402 0.0035353922 -0.0011423122 -0.0024333715 0.0037731964 0.0029617082 0.0029755563 -0.00042557792 -0.00087883096 -0.0019961423 0.0016802223 0.0031498473 -0.0016003093 0.0017271851 0.00075420423 0.00026971762 -0.0010685347 0.0036985197 -0.0009085138 0.0033676773 0.0013233464 -0.0016462905 -0.0013602698 -0.0020543374 -0.0037600002 0.0019596287 -0.0018138106 0.002559097 0.0012122067
6 -0.0032251964 0.0026234116 0.0017953323 0.0011809765 0.00057191355 0.0011099194 0.0015233876 0.00038191 0.001386451 0.0025826828 0.0022507866 -0.0033356808 -0.0015314075 0.0016178925 0.0015192926 -0.0028854143 -0.0004280751 -0.0008014018 0.0010637263 0.0013003675 0.0017420821 0.00022938669 -0.002034268 0.0037548877 -0.0019733398 -0.0020097063 0.0039765034 0.00056031207 0.001654327 0.00076813874 0.0008057543 -0.0021607033 -0.0027107974 -0.00096233515 0.0036061157 0.0031796813 0.00020689904 0.0027031004 -0.0015744048 -0.0007224585 -0.0011981296 0.0012382239 0.0038475632 0.0022527962 0.0012045858 0.0038622683 0.0020160705 0.0021575484 0.0021255424 -0.0013690558 -0.0010719621 -0.0022842686 0.0036104105 0.00085036573 0.0015052923 0.004184433 -0.0010487863 0.0015633627 0.0024441385 9.882695e-05 -0.0025415968 -0.0027492812 0.001410429 0.00081460876 -0.001226558 0.0016507695 -0.00019640918 0.0014627002 0.00072703144 -0.002443606 -0.0036740077 0.0012929427 0.0028430913 0.00026477748 -0.0039265687 -0.0007730868 0.0011158873 -0.0008521908 0.0036629592 -0.00064884365 -0.0030110662 0.0015684301 -0.0007052036 0.0021669313 -0.0022246426 -0.0030801124 0.0019622715 0.002265753 -0.003441035 -0.00020716814 -0.001107304 0.00021017753 -0.0035713871 -0.0008568321 0.0023822798 0.0021533773 0.0027048085 -7.345158e-05 0.00271559 -0.0020031843 -0.0015964395 0.00074729393 0.0015254061 -0.0010145716 -0.0009417752 -0.0023753925 -0.00042036563 0.0034064532 -0.003082926 0.0009418615 -0.00326375 0.0011812814 0.00061441935 0.00048260257 0.000555877 0.0036784015 -0.0031157061 0.0024736428 0.0024747306 -0.0021649755 -0.00034854622 0.00013074047 -0.0030917437 -0.001027352 -0.0010226563 -0.00097466126 -0.0013057222 0.0025756974
9 -0.0037360103 0.0006428736 0.0001380854 0.00090226927 -0.0018120006 0.0021986365 -0.00072065066 -0.0038097368 0.0002927262 -0.00313224 0.0026639865 0.0008482193 -0.0026872954 -0.002703285 0.0037160632 0.0013882666 -0.00012222255 0.0033439063 0.0037921644 0.00039331333 -0.0021093064 0.0007969702 0.0032109 -0.0025348759 -0.003771517 0.0003807956 -0.0027950038 0.0008670413 -0.00394486 -0.00013062639 0.0027370225 -0.0022508535 -0.0020467176 -0.00034465865 -0.00019220967 -0.002195044 -9.4452305e-05 -0.0023902792 0.0010338736 0.0008992236 0.0002641474 0.0037786195 0.0003219759 -0.0030010857 -0.0017014409 5.161634e-05 -0.0037300198 -0.00058299454 -0.0027795865 -0.0023041063 0.0030183368 -0.003094141 0.0036393937 0.0026827613 0.0025891368 0.00054411846 0.003765845 -0.0012038852 -0.0035928255 -0.0033578514 -0.0011158254 -0.0036078636 -0.0022486744 0.0011977353 -0.0024524152 -0.002709145 0.0026371914 -0.0031599465 0.0032395779 0.0021846115 0.00014083218 0.0006182907 0.00017485836 0.0012411991 -0.0015471836 -0.00039899503 -0.0025567664 0.0028600453 0.001319402 -0.0015622602 0.0021965168 -0.0031240932 0.00050905655 -0.003640978 -0.0030747452 0.0019029276 -0.0015335126 0.003536958 0.0015614225 -0.0029414608 0.00300269 0.0034929437 -0.00010164402 0.0029279222 0.00075641065 -0.0014784767 -0.0024366362 -0.0021223526 -0.00059415755 0.0027130158 -0.000570446 -0.0017071733 0.00295015 0.0032449262 0.0028675543 -0.00113845 0.0009403971 0.002903113 -0.0012603552 0.001661315 -0.0020727715 0.00026201678 -0.0001915185 0.002360748 0.0038243288 -0.0004243473 0.0017046712 0.0018368261 -0.0019894529 -0.003381548 -0.00094664685 -0.0036304665 0.00015444215 -0.0012013321 0.0036860148 0.0025382908 0.0037679863 0.0014117735
5 -0.0035134288 0.0033182427 -0.0036542374 -0.0026515538 0.0007263783 0.003544629 0.0024413855 0.0011329997 0.0018589739 2.9825867e-05 0.0017127828 -0.0031304152 -0.0024619652 0.00089474913 -0.00020933108 0.0027849437 0.0036219673 -0.00051696744 0.0029279483 -0.00323311 -0.0015192945 0.0032126203 0.0031127655 -0.0031543265 0.00324398 -0.0031017812 0.0025441498 -0.0032796776 -0.0028389401 0.0016105102 0.0026223683 -0.00068786833 -0.0021693339 0.00067112513 0.00067434553 0.0028613156 -0.0015451136 -0.000946761 -0.0028584576 -0.00068931346 -0.0018540085 0.0036988899 -0.0032356207 -0.002300085 0.0022844048 0.0025948698 0.001022205 -0.0011565288 -0.0012600564 0.0028069552 0.001812321 -0.0022165016 -0.0005714123 0.0031389669 -0.0018202887 0.0012763694 -0.0031520857 0.0023967444 0.00068163563 -0.0013338891 -0.0032427222 0.0012800188 0.002048365 0.0036192774 -0.00058293546 0.0010059035 -0.0033557424 -0.0035295829 -0.0020707115 -0.002147597 -0.0013066513 0.0023219474 0.0016214232 -0.0016551306 -0.0005231567 -0.0023947635 0.0033990585 0.0015694639 0.0030373682 0.0018395684 -0.0004435539 0.0028841745 0.0034183753 0.0009602943 0.0013923448 0.0020873016 -0.0006134603 0.0030233064 -0.0024945326 0.0013509627 0.0032321378 0.00069291476 0.0022603767 2.5558058e-05 -8.363193e-05 0.0004716874 -0.0030120898 0.0031340723 -0.0029754352 0.00053431524 -0.0021587347 0.0023640548 -0.0011260472 -0.0031879793 -0.0024994316 0.00029508825 0.0033670468 0.0033358939 0.00031054905 -0.0004224913 -0.003694835 -0.00030719678 0.00022700785 0.0012218974 0.003598282 6.1657774e-05 0.0020780184 -0.0037914207 -0.0035391827 0.003117964 -0.0031280934 -0.00072971993 0.0035507553 -0.002744779 -0.002825672 -0.002006059 0.00387538 0.0026115656
